digraph Tree {
node [shape=box, style="filled, rounded", color="black", fontname="Arial"] ;
edge [fontname="Arial"] ;
0 [label=<Male &le; 0.5<br/>gini = 0.991<br/>samples = 100.0%<br/>value = [0.006, 0.008, 0.011, 0.002, 0.009, 0.004, 0.011, 0.004<br/>0.006, 0.013, 0.008, 0.004, 0.002, 0.009, 0.006, 0.004<br/>0.013, 0.006, 0.017, 0.002, 0.008, 0.008, 0.004, 0.009<br/>0.004, 0.013, 0.008, 0.004, 0.008, 0.004, 0.004, 0.008<br/>0.009, 0.008, 0.006, 0.008, 0.008, 0.013, 0.006, 0.004<br/>0.006, 0.009, 0.006, 0.009, 0.006, 0.006, 0.011, 0.008<br/>0.006, 0.002, 0.017, 0.009, 0.011, 0.002, 0.008, 0.006<br/>0.011, 0.011, 0.009, 0.013, 0.008, 0.006, 0.009, 0.002<br/>0.009, 0.006, 0.002, 0.008, 0.006, 0.006, 0.004, 0.008<br/>0.015, 0.006, 0.011, 0.006, 0.009, 0.011, 0.013, 0.004<br/>0.009, 0.006, 0.008, 0.008, 0.009, 0.006, 0.004, 0.006<br/>0.006, 0.002, 0.008, 0.006, 0.009, 0.004, 0.008, 0.004<br/>0.013, 0.009, 0.009, 0.008, 0.008, 0.021, 0.017, 0.006<br/>0.009, 0.006, 0.006, 0.008, 0.006, 0.011, 0.008, 0.008<br/>0.008, 0.004, 0.008, 0.002, 0.009, 0.009, 0.004, 0.004<br/>0.013, 0.008, 0.009, 0.019, 0.006, 0.008, 0.006, 0.009<br/>0.004, 0.008, 0.008, 0.006]<br/>class = Brainiac>, fillcolor="#ffffff"] ;
1 [label=<Telepathy &le; 0.5<br/>gini = 0.962<br/>samples = 24.0%<br/>value = [0.0, 0.0, 0.0, 0.0, 0.0, 0.0, 0.045, 0.0, 0.022, 0.0<br/>0.0, 0.0, 0.007, 0.037, 0.0, 0.0, 0.052, 0.0, 0.0<br/>0.0, 0.0, 0.0, 0.0, 0.037, 0.0, 0.052, 0.0, 0.0, 0.0<br/>0.0, 0.0, 0.0, 0.0, 0.0, 0.0, 0.0, 0.0, 0.0, 0.0<br/>0.0, 0.0, 0.037, 0.0, 0.0, 0.0, 0.0, 0.0, 0.0, 0.0<br/>0.0, 0.0, 0.037, 0.0, 0.007, 0.0, 0.0, 0.045, 0.0<br/>0.0, 0.0, 0.03, 0.022, 0.0, 0.0, 0.0, 0.022, 0.0<br/>0.0, 0.0, 0.0, 0.0, 0.0, 0.0, 0.0, 0.0, 0.0, 0.037<br/>0.045, 0.0, 0.0, 0.0, 0.0, 0.0, 0.0, 0.037, 0.022<br/>0.0, 0.0, 0.0, 0.0, 0.03, 0.0, 0.0, 0.0, 0.0, 0.0<br/>0.0, 0.037, 0.0, 0.0, 0.0, 0.0, 0.067, 0.0, 0.037<br/>0.0, 0.0, 0.0, 0.022, 0.0, 0.03, 0.03, 0.03, 0.0<br/>0.03, 0.0, 0.0, 0.0, 0.0, 0.0, 0.0, 0.0, 0.0, 0.0<br/>0.0, 0.0, 0.0, 0.037, 0.0, 0.0, 0.03, 0.022]<br/>class = Bizarro>, fillcolor="#fffcfe"] ;
0 -> 1 [labeldistance=2.5, labelangle=45, headlabel="True"] ;
2 [label=<Shapeshifter &le; 0.5<br/>gini = 0.957<br/>samples = 21.3%<br/>value = [0.0, 0.0, 0.0, 0.0, 0.0, 0.0, 0.053, 0.0, 0.026, 0.0<br/>0.0, 0.0, 0.009, 0.044, 0.0, 0.0, 0.061, 0.0, 0.0<br/>0.0, 0.0, 0.0, 0.0, 0.044, 0.0, 0.061, 0.0, 0.0, 0.0<br/>0.0, 0.0, 0.0, 0.0, 0.0, 0.0, 0.0, 0.0, 0.0, 0.0<br/>0.0, 0.0, 0.044, 0.0, 0.0, 0.0, 0.0, 0.0, 0.0, 0.0<br/>0.0, 0.0, 0.044, 0.0, 0.009, 0.0, 0.0, 0.053, 0.0<br/>0.0, 0.0, 0.0, 0.0, 0.0, 0.0, 0.0, 0.026, 0.0, 0.0<br/>0.0, 0.0, 0.0, 0.0, 0.0, 0.0, 0.0, 0.0, 0.044, 0.053<br/>0.0, 0.0, 0.0, 0.0, 0.0, 0.0, 0.044, 0.026, 0.0, 0.0<br/>0.0, 0.0, 0.0, 0.0, 0.0, 0.0, 0.0, 0.0, 0.0, 0.044<br/>0.0, 0.0, 0.0, 0.0, 0.0, 0.0, 0.044, 0.0, 0.0, 0.0<br/>0.026, 0.0, 0.035, 0.035, 0.035, 0.0, 0.035, 0.0, 0.0<br/>0.0, 0.0, 0.0, 0.0, 0.0, 0.0, 0.0, 0.0, 0.0, 0.0<br/>0.044, 0.0, 0.0, 0.035, 0.026]<br/>class = Black Canary>, fillcolor="#ffffff"] ;
1 -> 2 ;
3 [label=<Trained Assassin &le; 0.5<br/>gini = 0.955<br/>samples = 20.4%<br/>value = [0.0, 0.0, 0.0, 0.0, 0.0, 0.0, 0.055, 0.0, 0.028, 0.0<br/>0.0, 0.0, 0.009, 0.046, 0.0, 0.0, 0.064, 0.0, 0.0<br/>0.0, 0.0, 0.0, 0.0, 0.046, 0.0, 0.064, 0.0, 0.0, 0.0<br/>0.0, 0.0, 0.0, 0.0, 0.0, 0.0, 0.0, 0.0, 0.0, 0.0<br/>0.0, 0.0, 0.046, 0.0, 0.0, 0.0, 0.0, 0.0, 0.0, 0.0<br/>0.0, 0.0, 0.046, 0.0, 0.009, 0.0, 0.0, 0.055, 0.0<br/>0.0, 0.0, 0.0, 0.0, 0.0, 0.0, 0.0, 0.028, 0.0, 0.0<br/>0.0, 0.0, 0.0, 0.0, 0.0, 0.0, 0.0, 0.0, 0.0, 0.055<br/>0.0, 0.0, 0.0, 0.0, 0.0, 0.0, 0.046, 0.028, 0.0, 0.0<br/>0.0, 0.0, 0.0, 0.0, 0.0, 0.0, 0.0, 0.0, 0.0, 0.046<br/>0.0, 0.0, 0.0, 0.0, 0.0, 0.0, 0.046, 0.0, 0.0, 0.0<br/>0.028, 0.0, 0.037, 0.037, 0.037, 0.0, 0.037, 0.0, 0.0<br/>0.0, 0.0, 0.0, 0.0, 0.0, 0.0, 0.0, 0.0, 0.0, 0.0<br/>0.046, 0.0, 0.0, 0.037, 0.028]<br/>class = Black Canary>, fillcolor="#ffffff"] ;
2 -> 3 ;
4 [label=<Ranged Fighter &le; 0.5<br/>gini = 0.946<br/>samples = 16.5%<br/>value = [0.0, 0.0, 0.0, 0.0, 0.0, 0.0, 0.071, 0.0, 0.035, 0.0<br/>0.0, 0.0, 0.012, 0.059, 0.0, 0.0, 0.0, 0.0, 0.0, 0.0<br/>0.0, 0.0, 0.0, 0.059, 0.0, 0.082, 0.0, 0.0, 0.0, 0.0<br/>0.0, 0.0, 0.0, 0.0, 0.0, 0.0, 0.0, 0.0, 0.0, 0.0<br/>0.0, 0.0, 0.0, 0.0, 0.0, 0.0, 0.0, 0.0, 0.0, 0.0<br/>0.0, 0.059, 0.0, 0.012, 0.0, 0.0, 0.0, 0.0, 0.0, 0.0<br/>0.0, 0.0, 0.0, 0.0, 0.0, 0.035, 0.0, 0.0, 0.0, 0.0<br/>0.0, 0.0, 0.0, 0.0, 0.0, 0.0, 0.0, 0.0, 0.0, 0.0<br/>0.0, 0.0, 0.0, 0.0, 0.059, 0.035, 0.0, 0.0, 0.0, 0.0<br/>0.0, 0.0, 0.0, 0.0, 0.0, 0.0, 0.0, 0.059, 0.0, 0.0<br/>0.0, 0.0, 0.0, 0.0, 0.059, 0.0, 0.0, 0.0, 0.035, 0.0<br/>0.047, 0.047, 0.047, 0.0, 0.047, 0.0, 0.0, 0.0, 0.0<br/>0.0, 0.0, 0.0, 0.0, 0.0, 0.0, 0.0, 0.0, 0.059, 0.0<br/>0.0, 0.047, 0.035]<br/>class = Black Adam>, fillcolor="#fdfffc"] ;
3 -> 4 ;
5 [label=<Uses Gadgets &le; 0.5<br/>gini = 0.94<br/>samples = 15.0%<br/>value = [0.0, 0.0, 0.0, 0.0, 0.0, 0.0, 0.08, 0.0, 0.04, 0.0<br/>0.0, 0.0, 0.013, 0.067, 0.0, 0.0, 0.0, 0.0, 0.0, 0.0<br/>0.0, 0.0, 0.0, 0.067, 0.0, 0.093, 0.0, 0.0, 0.0, 0.0<br/>0.0, 0.0, 0.0, 0.0, 0.0, 0.0, 0.0, 0.0, 0.0, 0.0<br/>0.0, 0.0, 0.0, 0.0, 0.0, 0.0, 0.0, 0.0, 0.0, 0.0<br/>0.0, 0.0, 0.0, 0.013, 0.0, 0.0, 0.0, 0.0, 0.0, 0.0<br/>0.0, 0.0, 0.0, 0.0, 0.0, 0.04, 0.0, 0.0, 0.0, 0.0<br/>0.0, 0.0, 0.0, 0.0, 0.0, 0.0, 0.0, 0.0, 0.0, 0.0<br/>0.0, 0.0, 0.0, 0.0, 0.067, 0.04, 0.0, 0.0, 0.0, 0.0<br/>0.0, 0.0, 0.0, 0.0, 0.0, 0.0, 0.0, 0.067, 0.0, 0.0<br/>0.0, 0.0, 0.0, 0.0, 0.067, 0.0, 0.0, 0.0, 0.04, 0.0<br/>0.053, 0.053, 0.053, 0.0, 0.053, 0.0, 0.0, 0.0, 0.0<br/>0.0, 0.0, 0.0, 0.0, 0.0, 0.0, 0.0, 0.0, 0.0, 0.0<br/>0.0, 0.053, 0.04]<br/>class = Black Adam>, fillcolor="#fdfffc"] ;
4 -> 5 ;
6 [label=<Experiment Origin &le; 0.5<br/>gini = 0.913<br/>samples = 9.6%<br/>value = [0.0, 0.0, 0.0, 0.0, 0.0, 0.0, 0.0, 0.0, 0.0, 0.0<br/>0.0, 0.0, 0.021, 0.0, 0.0, 0.0, 0.0, 0.0, 0.0, 0.0<br/>0.0, 0.0, 0.0, 0.106, 0.0, 0.0, 0.0, 0.0, 0.0, 0.0<br/>0.0, 0.0, 0.0, 0.0, 0.0, 0.0, 0.0, 0.0, 0.0, 0.0<br/>0.0, 0.0, 0.0, 0.0, 0.0, 0.0, 0.0, 0.0, 0.0, 0.0<br/>0.0, 0.0, 0.0, 0.021, 0.0, 0.0, 0.0, 0.0, 0.0, 0.0<br/>0.0, 0.0, 0.0, 0.0, 0.0, 0.064, 0.0, 0.0, 0.0, 0.0<br/>0.0, 0.0, 0.0, 0.0, 0.0, 0.0, 0.0, 0.0, 0.0, 0.0<br/>0.0, 0.0, 0.0, 0.0, 0.106, 0.064, 0.0, 0.0, 0.0, 0.0<br/>0.0, 0.0, 0.0, 0.0, 0.0, 0.0, 0.0, 0.106, 0.0, 0.0<br/>0.0, 0.0, 0.0, 0.0, 0.106, 0.0, 0.0, 0.0, 0.0, 0.0<br/>0.085, 0.0, 0.085, 0.0, 0.085, 0.0, 0.0, 0.0, 0.0<br/>0.0, 0.0, 0.0, 0.0, 0.0, 0.0, 0.0, 0.0, 0.0, 0.0<br/>0.0, 0.085, 0.064]<br/>class = Supergirl>, fillcolor="#ffffff"] ;
5 -> 6 ;
7 [label=<Immortal &le; 0.5<br/>gini = 0.883<br/>samples = 7.2%<br/>value = [0.0, 0.0, 0.0, 0.0, 0.0, 0.0, 0.0, 0.0, 0.0, 0.0<br/>0.0, 0.0, 0.03, 0.0, 0.0, 0.0, 0.0, 0.0, 0.0, 0.0<br/>0.0, 0.0, 0.0, 0.152, 0.0, 0.0, 0.0, 0.0, 0.0, 0.0<br/>0.0, 0.0, 0.0, 0.0, 0.0, 0.0, 0.0, 0.0, 0.0, 0.0<br/>0.0, 0.0, 0.0, 0.0, 0.0, 0.0, 0.0, 0.0, 0.0, 0.0<br/>0.0, 0.0, 0.0, 0.03, 0.0, 0.0, 0.0, 0.0, 0.0, 0.0<br/>0.0, 0.0, 0.0, 0.0, 0.0, 0.091, 0.0, 0.0, 0.0, 0.0<br/>0.0, 0.0, 0.0, 0.0, 0.0, 0.0, 0.0, 0.0, 0.0, 0.0<br/>0.0, 0.0, 0.0, 0.0, 0.0, 0.091, 0.0, 0.0, 0.0, 0.0<br/>0.0, 0.0, 0.0, 0.0, 0.0, 0.0, 0.0, 0.152, 0.0, 0.0<br/>0.0, 0.0, 0.0, 0.0, 0.0, 0.0, 0.0, 0.0, 0.0, 0.0<br/>0.121, 0.0, 0.0, 0.0, 0.121, 0.0, 0.0, 0.0, 0.0, 0.0<br/>0.0, 0.0, 0.0, 0.0, 0.0, 0.0, 0.0, 0.0, 0.0, 0.0<br/>0.121, 0.091]<br/>class = Supergirl>, fillcolor="#ffffff"] ;
6 -> 7 ;
8 [label="(...)", fillcolor="#C0C0C0"] ;
7 -> 8 ;
21 [label="(...)", fillcolor="#C0C0C0"] ;
7 -> 21 ;
26 [label=<Superhero &le; 0.5<br/>gini = 0.663<br/>samples = 2.4%<br/>value = [0.0, 0.0, 0.0, 0.0, 0.0, 0.0, 0.0, 0.0, 0.0, 0.0<br/>0.0, 0.0, 0.0, 0.0, 0.0, 0.0, 0.0, 0.0, 0.0, 0.0<br/>0.0, 0.0, 0.0, 0.0, 0.0, 0.0, 0.0, 0.0, 0.0, 0.0<br/>0.0, 0.0, 0.0, 0.0, 0.0, 0.0, 0.0, 0.0, 0.0, 0.0<br/>0.0, 0.0, 0.0, 0.0, 0.0, 0.0, 0.0, 0.0, 0.0, 0.0<br/>0.0, 0.0, 0.0, 0.0, 0.0, 0.0, 0.0, 0.0, 0.0, 0.0<br/>0.0, 0.0, 0.0, 0.0, 0.0, 0.0, 0.0, 0.0, 0.0, 0.0<br/>0.0, 0.0, 0.0, 0.0, 0.0, 0.0, 0.0, 0.0, 0.0, 0.0<br/>0.0, 0.0, 0.0, 0.0, 0.357, 0.0, 0.0, 0.0, 0.0, 0.0<br/>0.0, 0.0, 0.0, 0.0, 0.0, 0.0, 0.0, 0.0, 0.0, 0.0<br/>0.0, 0.0, 0.0, 0.0, 0.357, 0.0, 0.0, 0.0, 0.0, 0.0<br/>0.0, 0.0, 0.286, 0.0, 0.0, 0.0, 0.0, 0.0, 0.0, 0.0<br/>0.0, 0.0, 0.0, 0.0, 0.0, 0.0, 0.0, 0.0, 0.0, 0.0<br/>0.0, 0.0]<br/>class = Swamp Thing>, fillcolor="#ffffff"] ;
6 -> 26 ;
27 [label="(...)", fillcolor="#C0C0C0"] ;
26 -> 27 ;
28 [label="(...)", fillcolor="#C0C0C0"] ;
26 -> 28 ;
31 [label=<Reformed Villain &le; 0.5<br/>gini = 0.816<br/>samples = 5.4%<br/>value = [0.0, 0.0, 0.0, 0.0, 0.0, 0.0, 0.214, 0.0, 0.107, 0.0<br/>0.0, 0.0, 0.0, 0.179, 0.0, 0.0, 0.0, 0.0, 0.0, 0.0<br/>0.0, 0.0, 0.0, 0.0, 0.0, 0.25, 0.0, 0.0, 0.0, 0.0<br/>0.0, 0.0, 0.0, 0.0, 0.0, 0.0, 0.0, 0.0, 0.0, 0.0<br/>0.0, 0.0, 0.0, 0.0, 0.0, 0.0, 0.0, 0.0, 0.0, 0.0<br/>0.0, 0.0, 0.0, 0.0, 0.0, 0.0, 0.0, 0.0, 0.0, 0.0<br/>0.0, 0.0, 0.0, 0.0, 0.0, 0.0, 0.0, 0.0, 0.0, 0.0<br/>0.0, 0.0, 0.0, 0.0, 0.0, 0.0, 0.0, 0.0, 0.0, 0.0<br/>0.0, 0.0, 0.0, 0.0, 0.0, 0.0, 0.0, 0.0, 0.0, 0.0<br/>0.0, 0.0, 0.0, 0.0, 0.0, 0.0, 0.0, 0.0, 0.0, 0.0<br/>0.0, 0.0, 0.0, 0.0, 0.0, 0.0, 0.0, 0.0, 0.107, 0.0<br/>0.0, 0.143, 0.0, 0.0, 0.0, 0.0, 0.0, 0.0, 0.0, 0.0<br/>0.0, 0.0, 0.0, 0.0, 0.0, 0.0, 0.0, 0.0, 0.0, 0.0<br/>0.0, 0.0]<br/>class = Black Adam>, fillcolor="#fafef6"] ;
5 -> 31 ;
32 [label=<Tech Enhanced &le; 0.5<br/>gini = 0.727<br/>samples = 3.9%<br/>value = [0.0, 0.0, 0.0, 0.0, 0.0, 0.0, 0.375, 0.0, 0.188, 0.0<br/>0.0, 0.0, 0.0, 0.0, 0.0, 0.0, 0.0, 0.0, 0.0, 0.0<br/>0.0, 0.0, 0.0, 0.0, 0.0, 0.0, 0.0, 0.0, 0.0, 0.0<br/>0.0, 0.0, 0.0, 0.0, 0.0, 0.0, 0.0, 0.0, 0.0, 0.0<br/>0.0, 0.0, 0.0, 0.0, 0.0, 0.0, 0.0, 0.0, 0.0, 0.0<br/>0.0, 0.0, 0.0, 0.0, 0.0, 0.0, 0.0, 0.0, 0.0, 0.0<br/>0.0, 0.0, 0.0, 0.0, 0.0, 0.0, 0.0, 0.0, 0.0, 0.0<br/>0.0, 0.0, 0.0, 0.0, 0.0, 0.0, 0.0, 0.0, 0.0, 0.0<br/>0.0, 0.0, 0.0, 0.0, 0.0, 0.0, 0.0, 0.0, 0.0, 0.0<br/>0.0, 0.0, 0.0, 0.0, 0.0, 0.0, 0.0, 0.0, 0.0, 0.0<br/>0.0, 0.0, 0.0, 0.0, 0.0, 0.0, 0.0, 0.0, 0.188, 0.0<br/>0.0, 0.25, 0.0, 0.0, 0.0, 0.0, 0.0, 0.0, 0.0, 0.0<br/>0.0, 0.0, 0.0, 0.0, 0.0, 0.0, 0.0, 0.0, 0.0, 0.0<br/>0.0, 0.0]<br/>class = Hulk>, fillcolor="#fbf2de"] ;
31 -> 32 ;
33 [label="(...)", fillcolor="#C0C0C0"] ;
32 -> 33 ;
38 [label="(...)", fillcolor="#C0C0C0"] ;
32 -> 38 ;
39 [label=<Genre Marvel &le; 0.5<br/>gini = 0.486<br/>samples = 1.5%<br/>value = [0.0, 0.0, 0.0, 0.0, 0.0, 0.0, 0.0, 0.0, 0.0, 0.0<br/>0.0, 0.0, 0.0, 0.417, 0.0, 0.0, 0.0, 0.0, 0.0, 0.0<br/>0.0, 0.0, 0.0, 0.0, 0.0, 0.583, 0.0, 0.0, 0.0, 0.0<br/>0.0, 0.0, 0.0, 0.0, 0.0, 0.0, 0.0, 0.0, 0.0, 0.0<br/>0.0, 0.0, 0.0, 0.0, 0.0, 0.0, 0.0, 0.0, 0.0, 0.0<br/>0.0, 0.0, 0.0, 0.0, 0.0, 0.0, 0.0, 0.0, 0.0, 0.0<br/>0.0, 0.0, 0.0, 0.0, 0.0, 0.0, 0.0, 0.0, 0.0, 0.0<br/>0.0, 0.0, 0.0, 0.0, 0.0, 0.0, 0.0, 0.0, 0.0, 0.0<br/>0.0, 0.0, 0.0, 0.0, 0.0, 0.0, 0.0, 0.0, 0.0, 0.0<br/>0.0, 0.0, 0.0, 0.0, 0.0, 0.0, 0.0, 0.0, 0.0, 0.0<br/>0.0, 0.0, 0.0, 0.0, 0.0, 0.0, 0.0, 0.0, 0.0, 0.0<br/>0.0, 0.0, 0.0, 0.0, 0.0, 0.0, 0.0, 0.0, 0.0, 0.0<br/>0.0, 0.0, 0.0, 0.0, 0.0, 0.0, 0.0, 0.0, 0.0, 0.0<br/>0.0, 0.0]<br/>class = Black Adam>, fillcolor="#dcf8c6"] ;
31 -> 39 ;
40 [label="(...)", fillcolor="#C0C0C0"] ;
39 -> 40 ;
41 [label="(...)", fillcolor="#C0C0C0"] ;
39 -> 41 ;
42 [label=<Anti Hero &le; 0.5<br/>gini = 0.5<br/>samples = 1.5%<br/>value = [0.0, 0.0, 0.0, 0.0, 0.0, 0.0, 0.0, 0.0, 0.0, 0.0<br/>0.0, 0.0, 0.0, 0.0, 0.0, 0.0, 0.0, 0.0, 0.0, 0.0<br/>0.0, 0.0, 0.0, 0.0, 0.0, 0.0, 0.0, 0.0, 0.0, 0.0<br/>0.0, 0.0, 0.0, 0.0, 0.0, 0.0, 0.0, 0.0, 0.0, 0.0<br/>0.0, 0.0, 0.0, 0.0, 0.0, 0.0, 0.0, 0.0, 0.0, 0.0<br/>0.0, 0.5, 0.0, 0.0, 0.0, 0.0, 0.0, 0.0, 0.0, 0.0<br/>0.0, 0.0, 0.0, 0.0, 0.0, 0.0, 0.0, 0.0, 0.0, 0.0<br/>0.0, 0.0, 0.0, 0.0, 0.0, 0.0, 0.0, 0.0, 0.0, 0.0<br/>0.0, 0.0, 0.0, 0.0, 0.0, 0.0, 0.0, 0.0, 0.0, 0.0<br/>0.0, 0.0, 0.0, 0.0, 0.0, 0.0, 0.0, 0.0, 0.0, 0.0<br/>0.0, 0.0, 0.0, 0.0, 0.0, 0.0, 0.0, 0.0, 0.0, 0.0<br/>0.0, 0.0, 0.0, 0.0, 0.0, 0.0, 0.0, 0.0, 0.0, 0.0<br/>0.0, 0.0, 0.0, 0.0, 0.0, 0.0, 0.0, 0.5, 0.0, 0.0<br/>0.0, 0.0]<br/>class = Ant-Man>, fillcolor="#ffffff"] ;
4 -> 42 ;
43 [label=<gini = 0.0<br/>samples = 0.6%<br/>value = [0.0, 0.0, 0.0, 0.0, 0.0, 0.0, 0.0, 0.0, 0.0, 0.0<br/>0.0, 0.0, 0.0, 0.0, 0.0, 0.0, 0.0, 0.0, 0.0, 0.0<br/>0.0, 0.0, 0.0, 0.0, 0.0, 0.0, 0.0, 0.0, 0.0, 0.0<br/>0.0, 0.0, 0.0, 0.0, 0.0, 0.0, 0.0, 0.0, 0.0, 0.0<br/>0.0, 0.0, 0.0, 0.0, 0.0, 0.0, 0.0, 0.0, 0.0, 0.0<br/>0.0, 0.0, 0.0, 0.0, 0.0, 0.0, 0.0, 0.0, 0.0, 0.0<br/>0.0, 0.0, 0.0, 0.0, 0.0, 0.0, 0.0, 0.0, 0.0, 0.0<br/>0.0, 0.0, 0.0, 0.0, 0.0, 0.0, 0.0, 0.0, 0.0, 0.0<br/>0.0, 0.0, 0.0, 0.0, 0.0, 0.0, 0.0, 0.0, 0.0, 0.0<br/>0.0, 0.0, 0.0, 0.0, 0.0, 0.0, 0.0, 0.0, 0.0, 0.0<br/>0.0, 0.0, 0.0, 0.0, 0.0, 0.0, 0.0, 0.0, 0.0, 0.0<br/>0.0, 0.0, 0.0, 0.0, 0.0, 0.0, 0.0, 0.0, 0.0, 0.0<br/>0.0, 0.0, 0.0, 0.0, 0.0, 0.0, 0.0, 1.0, 0.0, 0.0<br/>0.0, 0.0]<br/>class = Ego>, fillcolor="#e55839"] ;
42 -> 43 ;
44 [label=<gini = 0.0<br/>samples = 0.9%<br/>value = [0.0, 0.0, 0.0, 0.0, 0.0, 0.0, 0.0, 0.0, 0.0, 0.0<br/>0.0, 0.0, 0.0, 0.0, 0.0, 0.0, 0.0, 0.0, 0.0, 0.0<br/>0.0, 0.0, 0.0, 0.0, 0.0, 0.0, 0.0, 0.0, 0.0, 0.0<br/>0.0, 0.0, 0.0, 0.0, 0.0, 0.0, 0.0, 0.0, 0.0, 0.0<br/>0.0, 0.0, 0.0, 0.0, 0.0, 0.0, 0.0, 0.0, 0.0, 0.0<br/>0.0, 1.0, 0.0, 0.0, 0.0, 0.0, 0.0, 0.0, 0.0, 0.0<br/>0.0, 0.0, 0.0, 0.0, 0.0, 0.0, 0.0, 0.0, 0.0, 0.0<br/>0.0, 0.0, 0.0, 0.0, 0.0, 0.0, 0.0, 0.0, 0.0, 0.0<br/>0.0, 0.0, 0.0, 0.0, 0.0, 0.0, 0.0, 0.0, 0.0, 0.0<br/>0.0, 0.0, 0.0, 0.0, 0.0, 0.0, 0.0, 0.0, 0.0, 0.0<br/>0.0, 0.0, 0.0, 0.0, 0.0, 0.0, 0.0, 0.0, 0.0, 0.0<br/>0.0, 0.0, 0.0, 0.0, 0.0, 0.0, 0.0, 0.0, 0.0, 0.0<br/>0.0, 0.0, 0.0, 0.0, 0.0, 0.0, 0.0, 0.0, 0.0, 0.0<br/>0.0, 0.0]<br/>class = Ant-Man>, fillcolor="#39e5b7"] ;
42 -> 44 ;
45 [label=<Superhero &le; 0.5<br/>gini = 0.747<br/>samples = 3.9%<br/>value = [0.0, 0.0, 0.0, 0.0, 0.0, 0.0, 0.0, 0.0, 0.0, 0.0<br/>0.0, 0.0, 0.0, 0.0, 0.0, 0.0, 0.292, 0.0, 0.0, 0.0<br/>0.0, 0.0, 0.0, 0.0, 0.0, 0.0, 0.0, 0.0, 0.0, 0.0<br/>0.0, 0.0, 0.0, 0.0, 0.0, 0.0, 0.0, 0.0, 0.0, 0.0<br/>0.0, 0.208, 0.0, 0.0, 0.0, 0.0, 0.0, 0.0, 0.0, 0.0<br/>0.0, 0.0, 0.0, 0.0, 0.0, 0.0, 0.25, 0.0, 0.0, 0.0<br/>0.0, 0.0, 0.0, 0.0, 0.0, 0.0, 0.0, 0.0, 0.0, 0.0<br/>0.0, 0.0, 0.0, 0.0, 0.0, 0.0, 0.0, 0.25, 0.0, 0.0<br/>0.0, 0.0, 0.0, 0.0, 0.0, 0.0, 0.0, 0.0, 0.0, 0.0<br/>0.0, 0.0, 0.0, 0.0, 0.0, 0.0, 0.0, 0.0, 0.0, 0.0<br/>0.0, 0.0, 0.0, 0.0, 0.0, 0.0, 0.0, 0.0, 0.0, 0.0<br/>0.0, 0.0, 0.0, 0.0, 0.0, 0.0, 0.0, 0.0, 0.0, 0.0<br/>0.0, 0.0, 0.0, 0.0, 0.0, 0.0, 0.0, 0.0, 0.0, 0.0<br/>0.0, 0.0]<br/>class = Black Canary>, fillcolor="#fcfef4"] ;
3 -> 45 ;
46 [label=<gini = 0.0<br/>samples = 1.2%<br/>value = [0.0, 0.0, 0.0, 0.0, 0.0, 0.0, 0.0, 0.0, 0.0, 0.0<br/>0.0, 0.0, 0.0, 0.0, 0.0, 0.0, 0.0, 0.0, 0.0, 0.0<br/>0.0, 0.0, 0.0, 0.0, 0.0, 0.0, 0.0, 0.0, 0.0, 0.0<br/>0.0, 0.0, 0.0, 0.0, 0.0, 0.0, 0.0, 0.0, 0.0, 0.0<br/>0.0, 0.0, 0.0, 0.0, 0.0, 0.0, 0.0, 0.0, 0.0, 0.0<br/>0.0, 0.0, 0.0, 0.0, 0.0, 0.0, 0.0, 0.0, 0.0, 0.0<br/>0.0, 0.0, 0.0, 0.0, 0.0, 0.0, 0.0, 0.0, 0.0, 0.0<br/>0.0, 0.0, 0.0, 0.0, 0.0, 0.0, 0.0, 1.0, 0.0, 0.0<br/>0.0, 0.0, 0.0, 0.0, 0.0, 0.0, 0.0, 0.0, 0.0, 0.0<br/>0.0, 0.0, 0.0, 0.0, 0.0, 0.0, 0.0, 0.0, 0.0, 0.0<br/>0.0, 0.0, 0.0, 0.0, 0.0, 0.0, 0.0, 0.0, 0.0, 0.0<br/>0.0, 0.0, 0.0, 0.0, 0.0, 0.0, 0.0, 0.0, 0.0, 0.0<br/>0.0, 0.0, 0.0, 0.0, 0.0, 0.0, 0.0, 0.0, 0.0, 0.0<br/>0.0, 0.0]<br/>class = Kitty Pryde>, fillcolor="#394ae5"] ;
45 -> 46 ;
47 [label=<Genre Marvel &le; 0.5<br/>gini = 0.66<br/>samples = 2.7%<br/>value = [0.0, 0.0, 0.0, 0.0, 0.0, 0.0, 0.0, 0.0, 0.0, 0.0<br/>0.0, 0.0, 0.0, 0.0, 0.0, 0.0, 0.389, 0.0, 0.0, 0.0<br/>0.0, 0.0, 0.0, 0.0, 0.0, 0.0, 0.0, 0.0, 0.0, 0.0<br/>0.0, 0.0, 0.0, 0.0, 0.0, 0.0, 0.0, 0.0, 0.0, 0.0<br/>0.0, 0.278, 0.0, 0.0, 0.0, 0.0, 0.0, 0.0, 0.0, 0.0<br/>0.0, 0.0, 0.0, 0.0, 0.0, 0.0, 0.333, 0.0, 0.0, 0.0<br/>0.0, 0.0, 0.0, 0.0, 0.0, 0.0, 0.0, 0.0, 0.0, 0.0<br/>0.0, 0.0, 0.0, 0.0, 0.0, 0.0, 0.0, 0.0, 0.0, 0.0<br/>0.0, 0.0, 0.0, 0.0, 0.0, 0.0, 0.0, 0.0, 0.0, 0.0<br/>0.0, 0.0, 0.0, 0.0, 0.0, 0.0, 0.0, 0.0, 0.0, 0.0<br/>0.0, 0.0, 0.0, 0.0, 0.0, 0.0, 0.0, 0.0, 0.0, 0.0<br/>0.0, 0.0, 0.0, 0.0, 0.0, 0.0, 0.0, 0.0, 0.0, 0.0<br/>0.0, 0.0, 0.0, 0.0, 0.0, 0.0, 0.0, 0.0, 0.0, 0.0<br/>0.0, 0.0]<br/>class = Black Canary>, fillcolor="#fbfdee"] ;
45 -> 47 ;
48 [label=<gini = 0.0<br/>samples = 0.9%<br/>value = [0.0, 0.0, 0.0, 0.0, 0.0, 0.0, 0.0, 0.0, 0.0, 0.0<br/>0.0, 0.0, 0.0, 0.0, 0.0, 0.0, 0.0, 0.0, 0.0, 0.0<br/>0.0, 0.0, 0.0, 0.0, 0.0, 0.0, 0.0, 0.0, 0.0, 0.0<br/>0.0, 0.0, 0.0, 0.0, 0.0, 0.0, 0.0, 0.0, 0.0, 0.0<br/>0.0, 0.0, 0.0, 0.0, 0.0, 0.0, 0.0, 0.0, 0.0, 0.0<br/>0.0, 0.0, 0.0, 0.0, 0.0, 0.0, 1.0, 0.0, 0.0, 0.0<br/>0.0, 0.0, 0.0, 0.0, 0.0, 0.0, 0.0, 0.0, 0.0, 0.0<br/>0.0, 0.0, 0.0, 0.0, 0.0, 0.0, 0.0, 0.0, 0.0, 0.0<br/>0.0, 0.0, 0.0, 0.0, 0.0, 0.0, 0.0, 0.0, 0.0, 0.0<br/>0.0, 0.0, 0.0, 0.0, 0.0, 0.0, 0.0, 0.0, 0.0, 0.0<br/>0.0, 0.0, 0.0, 0.0, 0.0, 0.0, 0.0, 0.0, 0.0, 0.0<br/>0.0, 0.0, 0.0, 0.0, 0.0, 0.0, 0.0, 0.0, 0.0, 0.0<br/>0.0, 0.0, 0.0, 0.0, 0.0, 0.0, 0.0, 0.0, 0.0, 0.0<br/>0.0, 0.0]<br/>class = Lex Luthor>, fillcolor="#39e5dc"] ;
47 -> 48 ;
49 [label=<Anti Hero &le; 0.5<br/>gini = 0.486<br/>samples = 1.8%<br/>value = [0.0, 0.0, 0.0, 0.0, 0.0, 0.0, 0.0, 0.0, 0.0, 0.0<br/>0.0, 0.0, 0.0, 0.0, 0.0, 0.0, 0.583, 0.0, 0.0, 0.0<br/>0.0, 0.0, 0.0, 0.0, 0.0, 0.0, 0.0, 0.0, 0.0, 0.0<br/>0.0, 0.0, 0.0, 0.0, 0.0, 0.0, 0.0, 0.0, 0.0, 0.0<br/>0.0, 0.417, 0.0, 0.0, 0.0, 0.0, 0.0, 0.0, 0.0, 0.0<br/>0.0, 0.0, 0.0, 0.0, 0.0, 0.0, 0.0, 0.0, 0.0, 0.0<br/>0.0, 0.0, 0.0, 0.0, 0.0, 0.0, 0.0, 0.0, 0.0, 0.0<br/>0.0, 0.0, 0.0, 0.0, 0.0, 0.0, 0.0, 0.0, 0.0, 0.0<br/>0.0, 0.0, 0.0, 0.0, 0.0, 0.0, 0.0, 0.0, 0.0, 0.0<br/>0.0, 0.0, 0.0, 0.0, 0.0, 0.0, 0.0, 0.0, 0.0, 0.0<br/>0.0, 0.0, 0.0, 0.0, 0.0, 0.0, 0.0, 0.0, 0.0, 0.0<br/>0.0, 0.0, 0.0, 0.0, 0.0, 0.0, 0.0, 0.0, 0.0, 0.0<br/>0.0, 0.0, 0.0, 0.0, 0.0, 0.0, 0.0, 0.0, 0.0, 0.0<br/>0.0, 0.0]<br/>class = Black Canary>, fillcolor="#f1f8c6"] ;
47 -> 49 ;
50 [label=<gini = 0.0<br/>samples = 0.9%<br/>value = [0.0, 0.0, 0.0, 0.0, 0.0, 0.0, 0.0, 0.0, 0.0, 0.0<br/>0.0, 0.0, 0.0, 0.0, 0.0, 0.0, 1.0, 0.0, 0.0, 0.0<br/>0.0, 0.0, 0.0, 0.0, 0.0, 0.0, 0.0, 0.0, 0.0, 0.0<br/>0.0, 0.0, 0.0, 0.0, 0.0, 0.0, 0.0, 0.0, 0.0, 0.0<br/>0.0, 0.0, 0.0, 0.0, 0.0, 0.0, 0.0, 0.0, 0.0, 0.0<br/>0.0, 0.0, 0.0, 0.0, 0.0, 0.0, 0.0, 0.0, 0.0, 0.0<br/>0.0, 0.0, 0.0, 0.0, 0.0, 0.0, 0.0, 0.0, 0.0, 0.0<br/>0.0, 0.0, 0.0, 0.0, 0.0, 0.0, 0.0, 0.0, 0.0, 0.0<br/>0.0, 0.0, 0.0, 0.0, 0.0, 0.0, 0.0, 0.0, 0.0, 0.0<br/>0.0, 0.0, 0.0, 0.0, 0.0, 0.0, 0.0, 0.0, 0.0, 0.0<br/>0.0, 0.0, 0.0, 0.0, 0.0, 0.0, 0.0, 0.0, 0.0, 0.0<br/>0.0, 0.0, 0.0, 0.0, 0.0, 0.0, 0.0, 0.0, 0.0, 0.0<br/>0.0, 0.0, 0.0, 0.0, 0.0, 0.0, 0.0, 0.0, 0.0, 0.0<br/>0.0, 0.0]<br/>class = Black Canary>, fillcolor="#cee539"] ;
49 -> 50 ;
51 [label=<gini = 0.0<br/>samples = 0.9%<br/>value = [0.0, 0.0, 0.0, 0.0, 0.0, 0.0, 0.0, 0.0, 0.0, 0.0<br/>0.0, 0.0, 0.0, 0.0, 0.0, 0.0, 0.0, 0.0, 0.0, 0.0<br/>0.0, 0.0, 0.0, 0.0, 0.0, 0.0, 0.0, 0.0, 0.0, 0.0<br/>0.0, 0.0, 0.0, 0.0, 0.0, 0.0, 0.0, 0.0, 0.0, 0.0<br/>0.0, 1.0, 0.0, 0.0, 0.0, 0.0, 0.0, 0.0, 0.0, 0.0<br/>0.0, 0.0, 0.0, 0.0, 0.0, 0.0, 0.0, 0.0, 0.0, 0.0<br/>0.0, 0.0, 0.0, 0.0, 0.0, 0.0, 0.0, 0.0, 0.0, 0.0<br/>0.0, 0.0, 0.0, 0.0, 0.0, 0.0, 0.0, 0.0, 0.0, 0.0<br/>0.0, 0.0, 0.0, 0.0, 0.0, 0.0, 0.0, 0.0, 0.0, 0.0<br/>0.0, 0.0, 0.0, 0.0, 0.0, 0.0, 0.0, 0.0, 0.0, 0.0<br/>0.0, 0.0, 0.0, 0.0, 0.0, 0.0, 0.0, 0.0, 0.0, 0.0<br/>0.0, 0.0, 0.0, 0.0, 0.0, 0.0, 0.0, 0.0, 0.0, 0.0<br/>0.0, 0.0, 0.0, 0.0, 0.0, 0.0, 0.0, 0.0, 0.0, 0.0<br/>0.0, 0.0]<br/>class = Jean Grey>, fillcolor="#39e567"] ;
49 -> 51 ;
52 [label=<gini = 0.0<br/>samples = 0.9%<br/>value = [0.0, 0.0, 0.0, 0.0, 0.0, 0.0, 0.0, 0.0, 0.0, 0.0<br/>0.0, 0.0, 0.0, 0.0, 0.0, 0.0, 0.0, 0.0, 0.0, 0.0<br/>0.0, 0.0, 0.0, 0.0, 0.0, 0.0, 0.0, 0.0, 0.0, 0.0<br/>0.0, 0.0, 0.0, 0.0, 0.0, 0.0, 0.0, 0.0, 0.0, 0.0<br/>0.0, 0.0, 0.0, 0.0, 0.0, 0.0, 0.0, 0.0, 0.0, 0.0<br/>0.0, 0.0, 0.0, 0.0, 0.0, 0.0, 0.0, 0.0, 0.0, 0.0<br/>0.0, 0.0, 0.0, 0.0, 0.0, 0.0, 0.0, 0.0, 0.0, 0.0<br/>0.0, 0.0, 0.0, 0.0, 0.0, 0.0, 1.0, 0.0, 0.0, 0.0<br/>0.0, 0.0, 0.0, 0.0, 0.0, 0.0, 0.0, 0.0, 0.0, 0.0<br/>0.0, 0.0, 0.0, 0.0, 0.0, 0.0, 0.0, 0.0, 0.0, 0.0<br/>0.0, 0.0, 0.0, 0.0, 0.0, 0.0, 0.0, 0.0, 0.0, 0.0<br/>0.0, 0.0, 0.0, 0.0, 0.0, 0.0, 0.0, 0.0, 0.0, 0.0<br/>0.0, 0.0, 0.0, 0.0, 0.0, 0.0, 0.0, 0.0, 0.0, 0.0<br/>0.0, 0.0]<br/>class = Iceman>, fillcolor="#3950e5"] ;
2 -> 52 ;
53 [label=<Mutant &le; 0.5<br/>gini = 0.695<br/>samples = 2.7%<br/>value = [0.0, 0.0, 0.0, 0.0, 0.0, 0.0, 0.0, 0.0, 0.0, 0.0<br/>0.0, 0.0, 0.0, 0.0, 0.0, 0.0, 0.0, 0.0, 0.0, 0.0<br/>0.0, 0.0, 0.0, 0.0, 0.0, 0.0, 0.0, 0.0, 0.0, 0.0<br/>0.0, 0.0, 0.0, 0.0, 0.0, 0.0, 0.0, 0.0, 0.0, 0.0<br/>0.0, 0.0, 0.0, 0.0, 0.0, 0.0, 0.0, 0.0, 0.0, 0.0<br/>0.0, 0.0, 0.0, 0.0, 0.0, 0.0, 0.0, 0.0, 0.0, 0.0<br/>0.2, 0.15, 0.0, 0.0, 0.0, 0.0, 0.0, 0.0, 0.0, 0.0<br/>0.0, 0.0, 0.0, 0.0, 0.0, 0.0, 0.0, 0.0, 0.0, 0.0<br/>0.0, 0.0, 0.0, 0.0, 0.0, 0.0, 0.0, 0.0, 0.0, 0.0<br/>0.2, 0.0, 0.0, 0.0, 0.0, 0.0, 0.0, 0.0, 0.0, 0.0<br/>0.0, 0.0, 0.45, 0.0, 0.0, 0.0, 0.0, 0.0, 0.0, 0.0<br/>0.0, 0.0, 0.0, 0.0, 0.0, 0.0, 0.0, 0.0, 0.0, 0.0<br/>0.0, 0.0, 0.0, 0.0, 0.0, 0.0, 0.0, 0.0, 0.0, 0.0<br/>0.0, 0.0]<br/>class = Bizarro>, fillcolor="#f7c1f4"] ;
1 -> 53 ;
54 [label=<Experiment Origin &le; 0.5<br/>gini = 0.49<br/>samples = 1.2%<br/>value = [0.0, 0.0, 0.0, 0.0, 0.0, 0.0, 0.0, 0.0, 0.0, 0.0<br/>0.0, 0.0, 0.0, 0.0, 0.0, 0.0, 0.0, 0.0, 0.0, 0.0<br/>0.0, 0.0, 0.0, 0.0, 0.0, 0.0, 0.0, 0.0, 0.0, 0.0<br/>0.0, 0.0, 0.0, 0.0, 0.0, 0.0, 0.0, 0.0, 0.0, 0.0<br/>0.0, 0.0, 0.0, 0.0, 0.0, 0.0, 0.0, 0.0, 0.0, 0.0<br/>0.0, 0.0, 0.0, 0.0, 0.0, 0.0, 0.0, 0.0, 0.0, 0.0<br/>0.0, 0.429, 0.0, 0.0, 0.0, 0.0, 0.0, 0.0, 0.0, 0.0<br/>0.0, 0.0, 0.0, 0.0, 0.0, 0.0, 0.0, 0.0, 0.0, 0.0<br/>0.0, 0.0, 0.0, 0.0, 0.0, 0.0, 0.0, 0.0, 0.0, 0.0<br/>0.571, 0.0, 0.0, 0.0, 0.0, 0.0, 0.0, 0.0, 0.0, 0.0<br/>0.0, 0.0, 0.0, 0.0, 0.0, 0.0, 0.0, 0.0, 0.0, 0.0<br/>0.0, 0.0, 0.0, 0.0, 0.0, 0.0, 0.0, 0.0, 0.0, 0.0<br/>0.0, 0.0, 0.0, 0.0, 0.0, 0.0, 0.0, 0.0, 0.0, 0.0<br/>0.0, 0.0]<br/>class = Power Girl>, fillcolor="#e3cef8"] ;
53 -> 54 ;
55 [label=<gini = 0.0<br/>samples = 0.6%<br/>value = [0.0, 0.0, 0.0, 0.0, 0.0, 0.0, 0.0, 0.0, 0.0, 0.0<br/>0.0, 0.0, 0.0, 0.0, 0.0, 0.0, 0.0, 0.0, 0.0, 0.0<br/>0.0, 0.0, 0.0, 0.0, 0.0, 0.0, 0.0, 0.0, 0.0, 0.0<br/>0.0, 0.0, 0.0, 0.0, 0.0, 0.0, 0.0, 0.0, 0.0, 0.0<br/>0.0, 0.0, 0.0, 0.0, 0.0, 0.0, 0.0, 0.0, 0.0, 0.0<br/>0.0, 0.0, 0.0, 0.0, 0.0, 0.0, 0.0, 0.0, 0.0, 0.0<br/>0.0, 0.0, 0.0, 0.0, 0.0, 0.0, 0.0, 0.0, 0.0, 0.0<br/>0.0, 0.0, 0.0, 0.0, 0.0, 0.0, 0.0, 0.0, 0.0, 0.0<br/>0.0, 0.0, 0.0, 0.0, 0.0, 0.0, 0.0, 0.0, 0.0, 0.0<br/>1.0, 0.0, 0.0, 0.0, 0.0, 0.0, 0.0, 0.0, 0.0, 0.0<br/>0.0, 0.0, 0.0, 0.0, 0.0, 0.0, 0.0, 0.0, 0.0, 0.0<br/>0.0, 0.0, 0.0, 0.0, 0.0, 0.0, 0.0, 0.0, 0.0, 0.0<br/>0.0, 0.0, 0.0, 0.0, 0.0, 0.0, 0.0, 0.0, 0.0, 0.0<br/>0.0, 0.0]<br/>class = Power Girl>, fillcolor="#8f39e5"] ;
54 -> 55 ;
56 [label=<gini = 0.0<br/>samples = 0.6%<br/>value = [0.0, 0.0, 0.0, 0.0, 0.0, 0.0, 0.0, 0.0, 0.0, 0.0<br/>0.0, 0.0, 0.0, 0.0, 0.0, 0.0, 0.0, 0.0, 0.0, 0.0<br/>0.0, 0.0, 0.0, 0.0, 0.0, 0.0, 0.0, 0.0, 0.0, 0.0<br/>0.0, 0.0, 0.0, 0.0, 0.0, 0.0, 0.0, 0.0, 0.0, 0.0<br/>0.0, 0.0, 0.0, 0.0, 0.0, 0.0, 0.0, 0.0, 0.0, 0.0<br/>0.0, 0.0, 0.0, 0.0, 0.0, 0.0, 0.0, 0.0, 0.0, 0.0<br/>0.0, 1.0, 0.0, 0.0, 0.0, 0.0, 0.0, 0.0, 0.0, 0.0<br/>0.0, 0.0, 0.0, 0.0, 0.0, 0.0, 0.0, 0.0, 0.0, 0.0<br/>0.0, 0.0, 0.0, 0.0, 0.0, 0.0, 0.0, 0.0, 0.0, 0.0<br/>0.0, 0.0, 0.0, 0.0, 0.0, 0.0, 0.0, 0.0, 0.0, 0.0<br/>0.0, 0.0, 0.0, 0.0, 0.0, 0.0, 0.0, 0.0, 0.0, 0.0<br/>0.0, 0.0, 0.0, 0.0, 0.0, 0.0, 0.0, 0.0, 0.0, 0.0<br/>0.0, 0.0, 0.0, 0.0, 0.0, 0.0, 0.0, 0.0, 0.0, 0.0<br/>0.0, 0.0]<br/>class = Falcon (Sam Wilson)>, fillcolor="#39c5e5"] ;
54 -> 56 ;
57 [label=<Reformed Villain &le; 0.5<br/>gini = 0.426<br/>samples = 1.5%<br/>value = [0.0, 0.0, 0.0, 0.0, 0.0, 0.0, 0.0, 0.0, 0.0, 0.0<br/>0.0, 0.0, 0.0, 0.0, 0.0, 0.0, 0.0, 0.0, 0.0, 0.0<br/>0.0, 0.0, 0.0, 0.0, 0.0, 0.0, 0.0, 0.0, 0.0, 0.0<br/>0.0, 0.0, 0.0, 0.0, 0.0, 0.0, 0.0, 0.0, 0.0, 0.0<br/>0.0, 0.0, 0.0, 0.0, 0.0, 0.0, 0.0, 0.0, 0.0, 0.0<br/>0.0, 0.0, 0.0, 0.0, 0.0, 0.0, 0.0, 0.0, 0.0, 0.0<br/>0.308, 0.0, 0.0, 0.0, 0.0, 0.0, 0.0, 0.0, 0.0, 0.0<br/>0.0, 0.0, 0.0, 0.0, 0.0, 0.0, 0.0, 0.0, 0.0, 0.0<br/>0.0, 0.0, 0.0, 0.0, 0.0, 0.0, 0.0, 0.0, 0.0, 0.0<br/>0.0, 0.0, 0.0, 0.0, 0.0, 0.0, 0.0, 0.0, 0.0, 0.0<br/>0.0, 0.0, 0.692, 0.0, 0.0, 0.0, 0.0, 0.0, 0.0, 0.0<br/>0.0, 0.0, 0.0, 0.0, 0.0, 0.0, 0.0, 0.0, 0.0, 0.0<br/>0.0, 0.0, 0.0, 0.0, 0.0, 0.0, 0.0, 0.0, 0.0, 0.0<br/>0.0, 0.0]<br/>class = Bizarro>, fillcolor="#f191ec"] ;
53 -> 57 ;
58 [label=<gini = 0.0<br/>samples = 0.6%<br/>value = [0.0, 0.0, 0.0, 0.0, 0.0, 0.0, 0.0, 0.0, 0.0, 0.0<br/>0.0, 0.0, 0.0, 0.0, 0.0, 0.0, 0.0, 0.0, 0.0, 0.0<br/>0.0, 0.0, 0.0, 0.0, 0.0, 0.0, 0.0, 0.0, 0.0, 0.0<br/>0.0, 0.0, 0.0, 0.0, 0.0, 0.0, 0.0, 0.0, 0.0, 0.0<br/>0.0, 0.0, 0.0, 0.0, 0.0, 0.0, 0.0, 0.0, 0.0, 0.0<br/>0.0, 0.0, 0.0, 0.0, 0.0, 0.0, 0.0, 0.0, 0.0, 0.0<br/>1.0, 0.0, 0.0, 0.0, 0.0, 0.0, 0.0, 0.0, 0.0, 0.0<br/>0.0, 0.0, 0.0, 0.0, 0.0, 0.0, 0.0, 0.0, 0.0, 0.0<br/>0.0, 0.0, 0.0, 0.0, 0.0, 0.0, 0.0, 0.0, 0.0, 0.0<br/>0.0, 0.0, 0.0, 0.0, 0.0, 0.0, 0.0, 0.0, 0.0, 0.0<br/>0.0, 0.0, 0.0, 0.0, 0.0, 0.0, 0.0, 0.0, 0.0, 0.0<br/>0.0, 0.0, 0.0, 0.0, 0.0, 0.0, 0.0, 0.0, 0.0, 0.0<br/>0.0, 0.0, 0.0, 0.0, 0.0, 0.0, 0.0, 0.0, 0.0, 0.0<br/>0.0, 0.0]<br/>class = Huntress>, fillcolor="#39cee5"] ;
57 -> 58 ;
59 [label=<gini = 0.0<br/>samples = 0.9%<br/>value = [0.0, 0.0, 0.0, 0.0, 0.0, 0.0, 0.0, 0.0, 0.0, 0.0<br/>0.0, 0.0, 0.0, 0.0, 0.0, 0.0, 0.0, 0.0, 0.0, 0.0<br/>0.0, 0.0, 0.0, 0.0, 0.0, 0.0, 0.0, 0.0, 0.0, 0.0<br/>0.0, 0.0, 0.0, 0.0, 0.0, 0.0, 0.0, 0.0, 0.0, 0.0<br/>0.0, 0.0, 0.0, 0.0, 0.0, 0.0, 0.0, 0.0, 0.0, 0.0<br/>0.0, 0.0, 0.0, 0.0, 0.0, 0.0, 0.0, 0.0, 0.0, 0.0<br/>0.0, 0.0, 0.0, 0.0, 0.0, 0.0, 0.0, 0.0, 0.0, 0.0<br/>0.0, 0.0, 0.0, 0.0, 0.0, 0.0, 0.0, 0.0, 0.0, 0.0<br/>0.0, 0.0, 0.0, 0.0, 0.0, 0.0, 0.0, 0.0, 0.0, 0.0<br/>0.0, 0.0, 0.0, 0.0, 0.0, 0.0, 0.0, 0.0, 0.0, 0.0<br/>0.0, 0.0, 1.0, 0.0, 0.0, 0.0, 0.0, 0.0, 0.0, 0.0<br/>0.0, 0.0, 0.0, 0.0, 0.0, 0.0, 0.0, 0.0, 0.0, 0.0<br/>0.0, 0.0, 0.0, 0.0, 0.0, 0.0, 0.0, 0.0, 0.0, 0.0<br/>0.0, 0.0]<br/>class = Bizarro>, fillcolor="#e539dc"] ;
57 -> 59 ;
60 [label=<Avenger &le; 0.5<br/>gini = 0.988<br/>samples = 76.0%<br/>value = [0.008, 0.01, 0.015, 0.003, 0.013, 0.005, 0.0, 0.005<br/>0.0, 0.018, 0.01, 0.005, 0.0, 0.0, 0.008, 0.005, 0.0<br/>0.008, 0.023, 0.003, 0.01, 0.01, 0.005, 0.0, 0.005<br/>0.0, 0.01, 0.005, 0.01, 0.005, 0.005, 0.01, 0.013<br/>0.01, 0.008, 0.01, 0.01, 0.018, 0.008, 0.005, 0.008<br/>0.0, 0.008, 0.013, 0.008, 0.008, 0.015, 0.01, 0.008<br/>0.003, 0.023, 0.0, 0.015, 0.0, 0.01, 0.008, 0.0, 0.015<br/>0.013, 0.018, 0.0, 0.0, 0.013, 0.003, 0.013, 0.0<br/>0.003, 0.01, 0.008, 0.008, 0.005, 0.01, 0.02, 0.008<br/>0.015, 0.008, 0.0, 0.0, 0.018, 0.005, 0.013, 0.008<br/>0.01, 0.01, 0.0, 0.0, 0.005, 0.008, 0.008, 0.003, 0.0<br/>0.008, 0.013, 0.005, 0.01, 0.005, 0.018, 0.0, 0.013<br/>0.01, 0.01, 0.028, 0.0, 0.008, 0.0, 0.008, 0.008, 0.01<br/>0.0, 0.015, 0.0, 0.0, 0.0, 0.005, 0.0, 0.003, 0.013<br/>0.013, 0.005, 0.005, 0.018, 0.01, 0.013, 0.025, 0.008<br/>0.01, 0.008, 0.0, 0.005, 0.01, 0.0, 0.0]<br/>class = Brainiac>, fillcolor="#fffeff"] ;
0 -> 60 [labeldistance=2.5, labelangle=-45, headlabel="False"] ;
61 [label=<Stealth Expert &le; 0.5<br/>gini = 0.984<br/>samples = 58.6%<br/>value = [0.01, 0.0, 0.02, 0.003, 0.016, 0.007, 0.0, 0.007, 0.0<br/>0.023, 0.013, 0.007, 0.0, 0.0, 0.01, 0.0, 0.0, 0.01<br/>0.03, 0.003, 0.013, 0.0, 0.007, 0.0, 0.007, 0.0, 0.0<br/>0.007, 0.013, 0.0, 0.007, 0.013, 0.016, 0.013, 0.01<br/>0.013, 0.013, 0.0, 0.01, 0.007, 0.01, 0.0, 0.0, 0.0<br/>0.01, 0.01, 0.0, 0.013, 0.01, 0.003, 0.03, 0.0, 0.0<br/>0.0, 0.013, 0.0, 0.0, 0.0, 0.016, 0.0, 0.0, 0.0<br/>0.016, 0.003, 0.016, 0.0, 0.003, 0.013, 0.01, 0.01<br/>0.007, 0.013, 0.026, 0.01, 0.02, 0.01, 0.0, 0.0, 0.023<br/>0.0, 0.016, 0.01, 0.013, 0.013, 0.0, 0.0, 0.007, 0.01<br/>0.0, 0.003, 0.0, 0.01, 0.016, 0.007, 0.013, 0.007<br/>0.023, 0.0, 0.016, 0.013, 0.013, 0.036, 0.0, 0.01, 0.0<br/>0.01, 0.01, 0.013, 0.0, 0.0, 0.0, 0.0, 0.0, 0.007<br/>0.0, 0.003, 0.016, 0.016, 0.007, 0.007, 0.0, 0.013<br/>0.016, 0.033, 0.0, 0.013, 0.0, 0.0, 0.0, 0.0, 0.0<br/>0.0]<br/>class = Brainiac>, fillcolor="#fffeff"] ;
60 -> 61 ;
62 [label=<Super Strength &le; 0.5<br/>gini = 0.979<br/>samples = 40.2%<br/>value = [0.015, 0.0, 0.03, 0.005, 0.025, 0.0, 0.0, 0.0, 0.0<br/>0.035, 0.02, 0.01, 0.0, 0.0, 0.0, 0.0, 0.0, 0.0<br/>0.045, 0.005, 0.02, 0.0, 0.01, 0.0, 0.01, 0.0, 0.0<br/>0.01, 0.02, 0.0, 0.0, 0.02, 0.025, 0.0, 0.015, 0.02<br/>0.02, 0.0, 0.015, 0.01, 0.015, 0.0, 0.0, 0.0, 0.015<br/>0.015, 0.0, 0.02, 0.0, 0.005, 0.045, 0.0, 0.0, 0.0<br/>0.02, 0.0, 0.0, 0.0, 0.025, 0.0, 0.0, 0.0, 0.025<br/>0.005, 0.025, 0.0, 0.005, 0.02, 0.015, 0.015, 0.01<br/>0.02, 0.0, 0.015, 0.0, 0.0, 0.0, 0.0, 0.0, 0.0, 0.0<br/>0.015, 0.02, 0.02, 0.0, 0.0, 0.01, 0.0, 0.0, 0.0<br/>0.0, 0.0, 0.0, 0.01, 0.0, 0.01, 0.0, 0.0, 0.025, 0.0<br/>0.02, 0.0, 0.0, 0.015, 0.0, 0.015, 0.015, 0.02, 0.0<br/>0.0, 0.0, 0.0, 0.0, 0.01, 0.0, 0.005, 0.025, 0.0<br/>0.01, 0.0, 0.0, 0.02, 0.025, 0.0, 0.0, 0.02, 0.0<br/>0.0, 0.0, 0.0, 0.0, 0.0]<br/>class = Hawkgirl>, fillcolor="#ffffff"] ;
61 -> 62 ;
63 [label=<Wears Armor &le; 0.5<br/>gini = 0.942<br/>samples = 16.5%<br/>value = [0.0, 0.0, 0.0, 0.0, 0.057, 0.0, 0.0, 0.0, 0.0, 0.08<br/>0.0, 0.0, 0.0, 0.0, 0.0, 0.0, 0.0, 0.0, 0.102, 0.011<br/>0.0, 0.0, 0.023, 0.0, 0.0, 0.0, 0.0, 0.023, 0.0, 0.0<br/>0.0, 0.0, 0.057, 0.0, 0.0, 0.0, 0.045, 0.0, 0.0, 0.0<br/>0.034, 0.0, 0.0, 0.0, 0.0, 0.034, 0.0, 0.0, 0.0<br/>0.011, 0.102, 0.0, 0.0, 0.0, 0.0, 0.0, 0.0, 0.0<br/>0.057, 0.0, 0.0, 0.0, 0.057, 0.0, 0.0, 0.0, 0.011<br/>0.0, 0.0, 0.034, 0.0, 0.0, 0.0, 0.0, 0.0, 0.0, 0.0<br/>0.0, 0.0, 0.0, 0.0, 0.0, 0.045, 0.045, 0.0, 0.0<br/>0.023, 0.0, 0.0, 0.0, 0.0, 0.0, 0.0, 0.0, 0.0, 0.023<br/>0.0, 0.0, 0.0, 0.0, 0.0, 0.0, 0.0, 0.0, 0.0, 0.0<br/>0.034, 0.0, 0.0, 0.0, 0.0, 0.0, 0.0, 0.0, 0.0, 0.0<br/>0.0, 0.0, 0.0, 0.0, 0.0, 0.045, 0.0, 0.0, 0.0, 0.045<br/>0.0, 0.0, 0.0, 0.0, 0.0, 0.0]<br/>class = Hawkgirl>, fillcolor="#ffffff"] ;
62 -> 63 ;
64 [label=<Team Member &le; 0.5<br/>gini = 0.938<br/>samples = 14.7%<br/>value = [0.0, 0.0, 0.0, 0.0, 0.067, 0.0, 0.0, 0.0, 0.0, 0.093<br/>0.0, 0.0, 0.0, 0.0, 0.0, 0.0, 0.0, 0.0, 0.0, 0.013<br/>0.0, 0.0, 0.027, 0.0, 0.0, 0.0, 0.0, 0.027, 0.0, 0.0<br/>0.0, 0.0, 0.067, 0.0, 0.0, 0.0, 0.0, 0.0, 0.0, 0.0<br/>0.04, 0.0, 0.0, 0.0, 0.0, 0.04, 0.0, 0.0, 0.0, 0.013<br/>0.12, 0.0, 0.0, 0.0, 0.0, 0.0, 0.0, 0.0, 0.067, 0.0<br/>0.0, 0.0, 0.067, 0.0, 0.0, 0.0, 0.013, 0.0, 0.0<br/>0.04, 0.0, 0.0, 0.0, 0.0, 0.0, 0.0, 0.0, 0.0, 0.0<br/>0.0, 0.0, 0.0, 0.053, 0.053, 0.0, 0.0, 0.027, 0.0<br/>0.0, 0.0, 0.0, 0.0, 0.0, 0.0, 0.0, 0.027, 0.0, 0.0<br/>0.0, 0.0, 0.0, 0.0, 0.0, 0.0, 0.0, 0.0, 0.04, 0.0<br/>0.0, 0.0, 0.0, 0.0, 0.0, 0.0, 0.0, 0.0, 0.0, 0.0<br/>0.0, 0.0, 0.0, 0.053, 0.0, 0.0, 0.0, 0.053, 0.0, 0.0<br/>0.0, 0.0, 0.0, 0.0]<br/>class = Hawkeye>, fillcolor="#f9fefd"] ;
63 -> 64 ;
65 [label=<Solo Hero &le; 0.5<br/>gini = 0.915<br/>samples = 8.7%<br/>value = [0.0, 0.0, 0.0, 0.0, 0.0, 0.0, 0.0, 0.0, 0.0, 0.0<br/>0.0, 0.0, 0.0, 0.0, 0.0, 0.0, 0.0, 0.0, 0.0, 0.0<br/>0.0, 0.0, 0.045, 0.0, 0.0, 0.0, 0.0, 0.045, 0.0, 0.0<br/>0.0, 0.0, 0.114, 0.0, 0.0, 0.0, 0.0, 0.0, 0.0, 0.0<br/>0.068, 0.0, 0.0, 0.0, 0.0, 0.0, 0.0, 0.0, 0.0, 0.023<br/>0.0, 0.0, 0.0, 0.0, 0.0, 0.0, 0.0, 0.0, 0.114, 0.0<br/>0.0, 0.0, 0.114, 0.0, 0.0, 0.0, 0.023, 0.0, 0.0<br/>0.068, 0.0, 0.0, 0.0, 0.0, 0.0, 0.0, 0.0, 0.0, 0.0<br/>0.0, 0.0, 0.0, 0.091, 0.0, 0.0, 0.0, 0.0, 0.0, 0.0<br/>0.0, 0.0, 0.0, 0.0, 0.0, 0.0, 0.045, 0.0, 0.0, 0.0<br/>0.0, 0.0, 0.0, 0.0, 0.0, 0.0, 0.0, 0.068, 0.0, 0.0<br/>0.0, 0.0, 0.0, 0.0, 0.0, 0.0, 0.0, 0.0, 0.0, 0.0<br/>0.0, 0.0, 0.091, 0.0, 0.0, 0.0, 0.091, 0.0, 0.0, 0.0<br/>0.0, 0.0, 0.0]<br/>class = Falcon>, fillcolor="#ffffff"] ;
64 -> 65 ;
66 [label=<Trained Assassin &le; 0.5<br/>gini = 0.651<br/>samples = 2.7%<br/>value = [0.0, 0.0, 0.0, 0.0, 0.0, 0.0, 0.0, 0.0, 0.0, 0.0<br/>0.0, 0.0, 0.0, 0.0, 0.0, 0.0, 0.0, 0.0, 0.0, 0.0<br/>0.0, 0.0, 0.0, 0.0, 0.0, 0.0, 0.0, 0.0, 0.0, 0.0<br/>0.0, 0.0, 0.385, 0.0, 0.0, 0.0, 0.0, 0.0, 0.0, 0.0<br/>0.0, 0.0, 0.0, 0.0, 0.0, 0.0, 0.0, 0.0, 0.0, 0.0<br/>0.0, 0.0, 0.0, 0.0, 0.0, 0.0, 0.0, 0.0, 0.385, 0.0<br/>0.0, 0.0, 0.0, 0.0, 0.0, 0.0, 0.0, 0.0, 0.0, 0.231<br/>0.0, 0.0, 0.0, 0.0, 0.0, 0.0, 0.0, 0.0, 0.0, 0.0<br/>0.0, 0.0, 0.0, 0.0, 0.0, 0.0, 0.0, 0.0, 0.0, 0.0<br/>0.0, 0.0, 0.0, 0.0, 0.0, 0.0, 0.0, 0.0, 0.0, 0.0<br/>0.0, 0.0, 0.0, 0.0, 0.0, 0.0, 0.0, 0.0, 0.0, 0.0<br/>0.0, 0.0, 0.0, 0.0, 0.0, 0.0, 0.0, 0.0, 0.0, 0.0<br/>0.0, 0.0, 0.0, 0.0, 0.0, 0.0, 0.0, 0.0, 0.0, 0.0<br/>0.0, 0.0]<br/>class = Falcon>, fillcolor="#ffffff"] ;
65 -> 66 ;
67 [label="(...)", fillcolor="#C0C0C0"] ;
66 -> 67 ;
70 [label="(...)", fillcolor="#C0C0C0"] ;
66 -> 70 ;
71 [label=<Dual Identity &le; 0.5<br/>gini = 0.891<br/>samples = 6.0%<br/>value = [0.0, 0.0, 0.0, 0.0, 0.0, 0.0, 0.0, 0.0, 0.0, 0.0<br/>0.0, 0.0, 0.0, 0.0, 0.0, 0.0, 0.0, 0.0, 0.0, 0.0<br/>0.0, 0.0, 0.065, 0.0, 0.0, 0.0, 0.0, 0.065, 0.0, 0.0<br/>0.0, 0.0, 0.0, 0.0, 0.0, 0.0, 0.0, 0.0, 0.0, 0.0<br/>0.097, 0.0, 0.0, 0.0, 0.0, 0.0, 0.0, 0.0, 0.0, 0.032<br/>0.0, 0.0, 0.0, 0.0, 0.0, 0.0, 0.0, 0.0, 0.0, 0.0<br/>0.0, 0.0, 0.161, 0.0, 0.0, 0.0, 0.032, 0.0, 0.0, 0.0<br/>0.0, 0.0, 0.0, 0.0, 0.0, 0.0, 0.0, 0.0, 0.0, 0.0<br/>0.0, 0.0, 0.129, 0.0, 0.0, 0.0, 0.0, 0.0, 0.0, 0.0<br/>0.0, 0.0, 0.0, 0.0, 0.0, 0.065, 0.0, 0.0, 0.0, 0.0<br/>0.0, 0.0, 0.0, 0.0, 0.0, 0.0, 0.097, 0.0, 0.0, 0.0<br/>0.0, 0.0, 0.0, 0.0, 0.0, 0.0, 0.0, 0.0, 0.0, 0.0<br/>0.0, 0.129, 0.0, 0.0, 0.0, 0.129, 0.0, 0.0, 0.0, 0.0<br/>0.0, 0.0]<br/>class = Moon Knight>, fillcolor="#f8fdfe"] ;
65 -> 71 ;
72 [label="(...)", fillcolor="#C0C0C0"] ;
71 -> 72 ;
75 [label="(...)", fillcolor="#C0C0C0"] ;
71 -> 75 ;
92 [label=<Leader &le; 0.5<br/>gini = 0.807<br/>samples = 6.0%<br/>value = [0.0, 0.0, 0.0, 0.0, 0.161, 0.0, 0.0, 0.0, 0.0, 0.226<br/>0.0, 0.0, 0.0, 0.0, 0.0, 0.0, 0.0, 0.0, 0.0, 0.032<br/>0.0, 0.0, 0.0, 0.0, 0.0, 0.0, 0.0, 0.0, 0.0, 0.0<br/>0.0, 0.0, 0.0, 0.0, 0.0, 0.0, 0.0, 0.0, 0.0, 0.0<br/>0.0, 0.0, 0.0, 0.0, 0.0, 0.097, 0.0, 0.0, 0.0, 0.0<br/>0.29, 0.0, 0.0, 0.0, 0.0, 0.0, 0.0, 0.0, 0.0, 0.0<br/>0.0, 0.0, 0.0, 0.0, 0.0, 0.0, 0.0, 0.0, 0.0, 0.0<br/>0.0, 0.0, 0.0, 0.0, 0.0, 0.0, 0.0, 0.0, 0.0, 0.0<br/>0.0, 0.0, 0.0, 0.129, 0.0, 0.0, 0.065, 0.0, 0.0, 0.0<br/>0.0, 0.0, 0.0, 0.0, 0.0, 0.0, 0.0, 0.0, 0.0, 0.0<br/>0.0, 0.0, 0.0, 0.0, 0.0, 0.0, 0.0, 0.0, 0.0, 0.0<br/>0.0, 0.0, 0.0, 0.0, 0.0, 0.0, 0.0, 0.0, 0.0, 0.0<br/>0.0, 0.0, 0.0, 0.0, 0.0, 0.0, 0.0, 0.0, 0.0, 0.0<br/>0.0, 0.0]<br/>class = Hawkeye>, fillcolor="#eefdf8"] ;
64 -> 92 ;
93 [label=<Enhanced Senses &le; 0.5<br/>gini = 0.685<br/>samples = 3.6%<br/>value = [0.0, 0.0, 0.0, 0.0, 0.294, 0.0, 0.0, 0.0, 0.0, 0.412<br/>0.0, 0.0, 0.0, 0.0, 0.0, 0.0, 0.0, 0.0, 0.0, 0.059<br/>0.0, 0.0, 0.0, 0.0, 0.0, 0.0, 0.0, 0.0, 0.0, 0.0<br/>0.0, 0.0, 0.0, 0.0, 0.0, 0.0, 0.0, 0.0, 0.0, 0.0<br/>0.0, 0.0, 0.0, 0.0, 0.0, 0.0, 0.0, 0.0, 0.0, 0.0<br/>0.0, 0.0, 0.0, 0.0, 0.0, 0.0, 0.0, 0.0, 0.0, 0.0<br/>0.0, 0.0, 0.0, 0.0, 0.0, 0.0, 0.0, 0.0, 0.0, 0.0<br/>0.0, 0.0, 0.0, 0.0, 0.0, 0.0, 0.0, 0.0, 0.0, 0.0<br/>0.0, 0.0, 0.0, 0.235, 0.0, 0.0, 0.0, 0.0, 0.0, 0.0<br/>0.0, 0.0, 0.0, 0.0, 0.0, 0.0, 0.0, 0.0, 0.0, 0.0<br/>0.0, 0.0, 0.0, 0.0, 0.0, 0.0, 0.0, 0.0, 0.0, 0.0<br/>0.0, 0.0, 0.0, 0.0, 0.0, 0.0, 0.0, 0.0, 0.0, 0.0<br/>0.0, 0.0, 0.0, 0.0, 0.0, 0.0, 0.0, 0.0, 0.0, 0.0<br/>0.0, 0.0]<br/>class = Captain America>, fillcolor="#fbf5de"] ;
92 -> 93 ;
94 [label="(...)", fillcolor="#C0C0C0"] ;
93 -> 94 ;
99 [label="(...)", fillcolor="#C0C0C0"] ;
93 -> 99 ;
100 [label=<Genre Marvel &le; 0.5<br/>gini = 0.52<br/>samples = 2.4%<br/>value = [0.0, 0.0, 0.0, 0.0, 0.0, 0.0, 0.0, 0.0, 0.0, 0.0<br/>0.0, 0.0, 0.0, 0.0, 0.0, 0.0, 0.0, 0.0, 0.0, 0.0<br/>0.0, 0.0, 0.0, 0.0, 0.0, 0.0, 0.0, 0.0, 0.0, 0.0<br/>0.0, 0.0, 0.0, 0.0, 0.0, 0.0, 0.0, 0.0, 0.0, 0.0<br/>0.0, 0.0, 0.0, 0.0, 0.0, 0.214, 0.0, 0.0, 0.0, 0.0<br/>0.643, 0.0, 0.0, 0.0, 0.0, 0.0, 0.0, 0.0, 0.0, 0.0<br/>0.0, 0.0, 0.0, 0.0, 0.0, 0.0, 0.0, 0.0, 0.0, 0.0<br/>0.0, 0.0, 0.0, 0.0, 0.0, 0.0, 0.0, 0.0, 0.0, 0.0<br/>0.0, 0.0, 0.0, 0.0, 0.0, 0.0, 0.143, 0.0, 0.0, 0.0<br/>0.0, 0.0, 0.0, 0.0, 0.0, 0.0, 0.0, 0.0, 0.0, 0.0<br/>0.0, 0.0, 0.0, 0.0, 0.0, 0.0, 0.0, 0.0, 0.0, 0.0<br/>0.0, 0.0, 0.0, 0.0, 0.0, 0.0, 0.0, 0.0, 0.0, 0.0<br/>0.0, 0.0, 0.0, 0.0, 0.0, 0.0, 0.0, 0.0, 0.0, 0.0<br/>0.0, 0.0]<br/>class = Hawkeye>, fillcolor="#93f1d3"] ;
92 -> 100 ;
101 [label="(...)", fillcolor="#C0C0C0"] ;
100 -> 101 ;
104 [label="(...)", fillcolor="#C0C0C0"] ;
100 -> 104 ;
105 [label=<Ranged Fighter &le; 0.5<br/>gini = 0.426<br/>samples = 1.8%<br/>value = [0.0, 0.0, 0.0, 0.0, 0.0, 0.0, 0.0, 0.0, 0.0, 0.0<br/>0.0, 0.0, 0.0, 0.0, 0.0, 0.0, 0.0, 0.0, 0.692, 0.0<br/>0.0, 0.0, 0.0, 0.0, 0.0, 0.0, 0.0, 0.0, 0.0, 0.0<br/>0.0, 0.0, 0.0, 0.0, 0.0, 0.0, 0.308, 0.0, 0.0, 0.0<br/>0.0, 0.0, 0.0, 0.0, 0.0, 0.0, 0.0, 0.0, 0.0, 0.0<br/>0.0, 0.0, 0.0, 0.0, 0.0, 0.0, 0.0, 0.0, 0.0, 0.0<br/>0.0, 0.0, 0.0, 0.0, 0.0, 0.0, 0.0, 0.0, 0.0, 0.0<br/>0.0, 0.0, 0.0, 0.0, 0.0, 0.0, 0.0, 0.0, 0.0, 0.0<br/>0.0, 0.0, 0.0, 0.0, 0.0, 0.0, 0.0, 0.0, 0.0, 0.0<br/>0.0, 0.0, 0.0, 0.0, 0.0, 0.0, 0.0, 0.0, 0.0, 0.0<br/>0.0, 0.0, 0.0, 0.0, 0.0, 0.0, 0.0, 0.0, 0.0, 0.0<br/>0.0, 0.0, 0.0, 0.0, 0.0, 0.0, 0.0, 0.0, 0.0, 0.0<br/>0.0, 0.0, 0.0, 0.0, 0.0, 0.0, 0.0, 0.0, 0.0, 0.0<br/>0.0, 0.0]<br/>class = Hawkgirl>, fillcolor="#daf191"] ;
63 -> 105 ;
106 [label=<gini = 0.0<br/>samples = 0.6%<br/>value = [0.0, 0.0, 0.0, 0.0, 0.0, 0.0, 0.0, 0.0, 0.0, 0.0<br/>0.0, 0.0, 0.0, 0.0, 0.0, 0.0, 0.0, 0.0, 0.0, 0.0<br/>0.0, 0.0, 0.0, 0.0, 0.0, 0.0, 0.0, 0.0, 0.0, 0.0<br/>0.0, 0.0, 0.0, 0.0, 0.0, 0.0, 1.0, 0.0, 0.0, 0.0<br/>0.0, 0.0, 0.0, 0.0, 0.0, 0.0, 0.0, 0.0, 0.0, 0.0<br/>0.0, 0.0, 0.0, 0.0, 0.0, 0.0, 0.0, 0.0, 0.0, 0.0<br/>0.0, 0.0, 0.0, 0.0, 0.0, 0.0, 0.0, 0.0, 0.0, 0.0<br/>0.0, 0.0, 0.0, 0.0, 0.0, 0.0, 0.0, 0.0, 0.0, 0.0<br/>0.0, 0.0, 0.0, 0.0, 0.0, 0.0, 0.0, 0.0, 0.0, 0.0<br/>0.0, 0.0, 0.0, 0.0, 0.0, 0.0, 0.0, 0.0, 0.0, 0.0<br/>0.0, 0.0, 0.0, 0.0, 0.0, 0.0, 0.0, 0.0, 0.0, 0.0<br/>0.0, 0.0, 0.0, 0.0, 0.0, 0.0, 0.0, 0.0, 0.0, 0.0<br/>0.0, 0.0, 0.0, 0.0, 0.0, 0.0, 0.0, 0.0, 0.0, 0.0<br/>0.0, 0.0]<br/>class = Luke Cage>, fillcolor="#39e541"] ;
105 -> 106 ;
107 [label=<gini = 0.0<br/>samples = 1.2%<br/>value = [0.0, 0.0, 0.0, 0.0, 0.0, 0.0, 0.0, 0.0, 0.0, 0.0<br/>0.0, 0.0, 0.0, 0.0, 0.0, 0.0, 0.0, 0.0, 1.0, 0.0<br/>0.0, 0.0, 0.0, 0.0, 0.0, 0.0, 0.0, 0.0, 0.0, 0.0<br/>0.0, 0.0, 0.0, 0.0, 0.0, 0.0, 0.0, 0.0, 0.0, 0.0<br/>0.0, 0.0, 0.0, 0.0, 0.0, 0.0, 0.0, 0.0, 0.0, 0.0<br/>0.0, 0.0, 0.0, 0.0, 0.0, 0.0, 0.0, 0.0, 0.0, 0.0<br/>0.0, 0.0, 0.0, 0.0, 0.0, 0.0, 0.0, 0.0, 0.0, 0.0<br/>0.0, 0.0, 0.0, 0.0, 0.0, 0.0, 0.0, 0.0, 0.0, 0.0<br/>0.0, 0.0, 0.0, 0.0, 0.0, 0.0, 0.0, 0.0, 0.0, 0.0<br/>0.0, 0.0, 0.0, 0.0, 0.0, 0.0, 0.0, 0.0, 0.0, 0.0<br/>0.0, 0.0, 0.0, 0.0, 0.0, 0.0, 0.0, 0.0, 0.0, 0.0<br/>0.0, 0.0, 0.0, 0.0, 0.0, 0.0, 0.0, 0.0, 0.0, 0.0<br/>0.0, 0.0, 0.0, 0.0, 0.0, 0.0, 0.0, 0.0, 0.0, 0.0<br/>0.0, 0.0]<br/>class = Hawkgirl>, fillcolor="#bde539"] ;
105 -> 107 ;
108 [label=<Tech Enhanced &le; 0.5<br/>gini = 0.967<br/>samples = 23.7%<br/>value = [0.026, 0.0, 0.053, 0.009, 0.0, 0.0, 0.0, 0.0, 0.0<br/>0.0, 0.035, 0.018, 0.0, 0.0, 0.0, 0.0, 0.0, 0.0, 0.0<br/>0.0, 0.035, 0.0, 0.0, 0.0, 0.018, 0.0, 0.0, 0.0<br/>0.035, 0.0, 0.0, 0.035, 0.0, 0.0, 0.026, 0.035, 0.0<br/>0.0, 0.026, 0.018, 0.0, 0.0, 0.0, 0.0, 0.026, 0.0<br/>0.0, 0.035, 0.0, 0.0, 0.0, 0.0, 0.0, 0.0, 0.035, 0.0<br/>0.0, 0.0, 0.0, 0.0, 0.0, 0.0, 0.0, 0.009, 0.044, 0.0<br/>0.0, 0.035, 0.026, 0.0, 0.018, 0.035, 0.0, 0.026, 0.0<br/>0.0, 0.0, 0.0, 0.0, 0.0, 0.0, 0.026, 0.0, 0.0, 0.0<br/>0.0, 0.0, 0.0, 0.0, 0.0, 0.0, 0.0, 0.0, 0.018, 0.0<br/>0.0, 0.0, 0.0, 0.044, 0.0, 0.035, 0.0, 0.0, 0.026<br/>0.0, 0.026, 0.0, 0.035, 0.0, 0.0, 0.0, 0.0, 0.0<br/>0.018, 0.0, 0.009, 0.044, 0.0, 0.018, 0.0, 0.0, 0.0<br/>0.044, 0.0, 0.0, 0.0, 0.0, 0.0, 0.0, 0.0, 0.0, 0.0]<br/>class = Wonder Woman>, fillcolor="#fffefd"] ;
62 -> 108 ;
109 [label=<Wears Armor &le; 0.5<br/>gini = 0.959<br/>samples = 18.3%<br/>value = [0.035, 0.0, 0.0, 0.012, 0.0, 0.0, 0.0, 0.0, 0.0, 0.0<br/>0.047, 0.023, 0.0, 0.0, 0.0, 0.0, 0.0, 0.0, 0.0, 0.0<br/>0.0, 0.0, 0.0, 0.0, 0.023, 0.0, 0.0, 0.0, 0.0, 0.0<br/>0.0, 0.047, 0.0, 0.0, 0.0, 0.047, 0.0, 0.0, 0.035<br/>0.023, 0.0, 0.0, 0.0, 0.0, 0.035, 0.0, 0.0, 0.047<br/>0.0, 0.0, 0.0, 0.0, 0.0, 0.0, 0.047, 0.0, 0.0, 0.0<br/>0.0, 0.0, 0.0, 0.0, 0.0, 0.012, 0.058, 0.0, 0.0<br/>0.047, 0.035, 0.0, 0.023, 0.0, 0.0, 0.035, 0.0, 0.0<br/>0.0, 0.0, 0.0, 0.0, 0.0, 0.035, 0.0, 0.0, 0.0, 0.0<br/>0.0, 0.0, 0.0, 0.0, 0.0, 0.0, 0.0, 0.0, 0.0, 0.0<br/>0.0, 0.0, 0.058, 0.0, 0.047, 0.0, 0.0, 0.035, 0.0<br/>0.035, 0.0, 0.047, 0.0, 0.0, 0.0, 0.0, 0.0, 0.023<br/>0.0, 0.012, 0.058, 0.0, 0.023, 0.0, 0.0, 0.0, 0.0<br/>0.0, 0.0, 0.0, 0.0, 0.0, 0.0, 0.0, 0.0, 0.0]<br/>class = Scarlet Witch>, fillcolor="#ffffff"] ;
108 -> 109 ;
110 [label=<Mystic Power Source &le; 0.5<br/>gini = 0.939<br/>samples = 12.3%<br/>value = [0.054, 0.0, 0.0, 0.018, 0.0, 0.0, 0.0, 0.0, 0.0, 0.0<br/>0.071, 0.036, 0.0, 0.0, 0.0, 0.0, 0.0, 0.0, 0.0, 0.0<br/>0.0, 0.0, 0.0, 0.0, 0.036, 0.0, 0.0, 0.0, 0.0, 0.0<br/>0.0, 0.0, 0.0, 0.0, 0.0, 0.0, 0.0, 0.0, 0.054, 0.036<br/>0.0, 0.0, 0.0, 0.0, 0.054, 0.0, 0.0, 0.071, 0.0, 0.0<br/>0.0, 0.0, 0.0, 0.0, 0.0, 0.0, 0.0, 0.0, 0.0, 0.0<br/>0.0, 0.0, 0.0, 0.0, 0.089, 0.0, 0.0, 0.0, 0.054, 0.0<br/>0.036, 0.0, 0.0, 0.0, 0.0, 0.0, 0.0, 0.0, 0.0, 0.0<br/>0.0, 0.0, 0.0, 0.0, 0.0, 0.0, 0.0, 0.0, 0.0, 0.0<br/>0.0, 0.0, 0.0, 0.0, 0.0, 0.0, 0.0, 0.0, 0.0, 0.0<br/>0.071, 0.0, 0.0, 0.054, 0.0, 0.054, 0.0, 0.071, 0.0<br/>0.0, 0.0, 0.0, 0.0, 0.036, 0.0, 0.018, 0.089, 0.0<br/>0.0, 0.0, 0.0, 0.0, 0.0, 0.0, 0.0, 0.0, 0.0, 0.0<br/>0.0, 0.0, 0.0, 0.0]<br/>class = Scarlet Witch>, fillcolor="#ffffff"] ;
109 -> 110 ;
111 [label=<Energy Projection &le; 0.5<br/>gini = 0.917<br/>samples = 8.4%<br/>value = [0.079, 0.0, 0.0, 0.026, 0.0, 0.0, 0.0, 0.0, 0.0, 0.0<br/>0.105, 0.0, 0.0, 0.0, 0.0, 0.0, 0.0, 0.0, 0.0, 0.0<br/>0.0, 0.0, 0.0, 0.0, 0.053, 0.0, 0.0, 0.0, 0.0, 0.0<br/>0.0, 0.0, 0.0, 0.0, 0.0, 0.0, 0.0, 0.0, 0.079, 0.053<br/>0.0, 0.0, 0.0, 0.0, 0.079, 0.0, 0.0, 0.0, 0.0, 0.0<br/>0.0, 0.0, 0.0, 0.0, 0.0, 0.0, 0.0, 0.0, 0.0, 0.0<br/>0.0, 0.0, 0.0, 0.0, 0.132, 0.0, 0.0, 0.0, 0.079, 0.0<br/>0.053, 0.0, 0.0, 0.0, 0.0, 0.0, 0.0, 0.0, 0.0, 0.0<br/>0.0, 0.0, 0.0, 0.0, 0.0, 0.0, 0.0, 0.0, 0.0, 0.0<br/>0.0, 0.0, 0.0, 0.0, 0.0, 0.0, 0.0, 0.0, 0.0, 0.0<br/>0.105, 0.0, 0.0, 0.0, 0.0, 0.079, 0.0, 0.0, 0.0, 0.0<br/>0.0, 0.0, 0.0, 0.053, 0.0, 0.026, 0.0, 0.0, 0.0, 0.0<br/>0.0, 0.0, 0.0, 0.0, 0.0, 0.0, 0.0, 0.0, 0.0, 0.0<br/>0.0, 0.0]<br/>class = Scarlet Witch>, fillcolor="#f9fdfe"] ;
110 -> 111 ;
112 [label="(...)", fillcolor="#C0C0C0"] ;
111 -> 112 ;
125 [label="(...)", fillcolor="#C0C0C0"] ;
111 -> 125 ;
138 [label=<Justice League &le; 0.5<br/>gini = 0.784<br/>samples = 3.9%<br/>value = [0.0, 0.0, 0.0, 0.0, 0.0, 0.0, 0.0, 0.0, 0.0, 0.0<br/>0.0, 0.111, 0.0, 0.0, 0.0, 0.0, 0.0, 0.0, 0.0, 0.0<br/>0.0, 0.0, 0.0, 0.0, 0.0, 0.0, 0.0, 0.0, 0.0, 0.0<br/>0.0, 0.0, 0.0, 0.0, 0.0, 0.0, 0.0, 0.0, 0.0, 0.0<br/>0.0, 0.0, 0.0, 0.0, 0.0, 0.0, 0.0, 0.222, 0.0, 0.0<br/>0.0, 0.0, 0.0, 0.0, 0.0, 0.0, 0.0, 0.0, 0.0, 0.0<br/>0.0, 0.0, 0.0, 0.0, 0.0, 0.0, 0.0, 0.0, 0.0, 0.0<br/>0.0, 0.0, 0.0, 0.0, 0.0, 0.0, 0.0, 0.0, 0.0, 0.0<br/>0.0, 0.0, 0.0, 0.0, 0.0, 0.0, 0.0, 0.0, 0.0, 0.0<br/>0.0, 0.0, 0.0, 0.0, 0.0, 0.0, 0.0, 0.0, 0.0, 0.0<br/>0.0, 0.0, 0.0, 0.167, 0.0, 0.0, 0.0, 0.222, 0.0, 0.0<br/>0.0, 0.0, 0.0, 0.0, 0.0, 0.0, 0.278, 0.0, 0.0, 0.0<br/>0.0, 0.0, 0.0, 0.0, 0.0, 0.0, 0.0, 0.0, 0.0, 0.0<br/>0.0, 0.0]<br/>class = Red Skull>, fillcolor="#fdf1f5"] ;
110 -> 138 ;
139 [label="(...)", fillcolor="#C0C0C0"] ;
138 -> 139 ;
144 [label="(...)", fillcolor="#C0C0C0"] ;
138 -> 144 ;
147 [label=<Justice League &le; 0.5<br/>gini = 0.876<br/>samples = 6.0%<br/>value = [0.0, 0.0, 0.0, 0.0, 0.0, 0.0, 0.0, 0.0, 0.0, 0.0<br/>0.0, 0.0, 0.0, 0.0, 0.0, 0.0, 0.0, 0.0, 0.0, 0.0<br/>0.0, 0.0, 0.0, 0.0, 0.0, 0.0, 0.0, 0.0, 0.0, 0.0<br/>0.0, 0.133, 0.0, 0.0, 0.0, 0.133, 0.0, 0.0, 0.0, 0.0<br/>0.0, 0.0, 0.0, 0.0, 0.0, 0.0, 0.0, 0.0, 0.0, 0.0<br/>0.0, 0.0, 0.0, 0.0, 0.133, 0.0, 0.0, 0.0, 0.0, 0.0<br/>0.0, 0.0, 0.0, 0.033, 0.0, 0.0, 0.0, 0.133, 0.0, 0.0<br/>0.0, 0.0, 0.0, 0.1, 0.0, 0.0, 0.0, 0.0, 0.0, 0.0<br/>0.0, 0.1, 0.0, 0.0, 0.0, 0.0, 0.0, 0.0, 0.0, 0.0<br/>0.0, 0.0, 0.0, 0.0, 0.0, 0.0, 0.0, 0.0, 0.167, 0.0<br/>0.0, 0.0, 0.0, 0.0, 0.0, 0.0, 0.0, 0.0, 0.0, 0.0<br/>0.0, 0.0, 0.0, 0.0, 0.0, 0.0, 0.0, 0.0, 0.067, 0.0<br/>0.0, 0.0, 0.0, 0.0, 0.0, 0.0, 0.0, 0.0, 0.0, 0.0<br/>0.0, 0.0]<br/>class = Ra's al Ghul>, fillcolor="#fdf7fe"] ;
109 -> 147 ;
148 [label=<Dual Identity &le; 0.5<br/>gini = 0.835<br/>samples = 4.5%<br/>value = [0.0, 0.0, 0.0, 0.0, 0.0, 0.0, 0.0, 0.0, 0.0, 0.0<br/>0.0, 0.0, 0.0, 0.0, 0.0, 0.0, 0.0, 0.0, 0.0, 0.0<br/>0.0, 0.0, 0.0, 0.0, 0.0, 0.0, 0.0, 0.0, 0.0, 0.0<br/>0.0, 0.182, 0.0, 0.0, 0.0, 0.0, 0.0, 0.0, 0.0, 0.0<br/>0.0, 0.0, 0.0, 0.0, 0.0, 0.0, 0.0, 0.0, 0.0, 0.0<br/>0.0, 0.0, 0.0, 0.0, 0.0, 0.0, 0.0, 0.0, 0.0, 0.0<br/>0.0, 0.0, 0.0, 0.045, 0.0, 0.0, 0.0, 0.182, 0.0, 0.0<br/>0.0, 0.0, 0.0, 0.136, 0.0, 0.0, 0.0, 0.0, 0.0, 0.0<br/>0.0, 0.136, 0.0, 0.0, 0.0, 0.0, 0.0, 0.0, 0.0, 0.0<br/>0.0, 0.0, 0.0, 0.0, 0.0, 0.0, 0.0, 0.0, 0.227, 0.0<br/>0.0, 0.0, 0.0, 0.0, 0.0, 0.0, 0.0, 0.0, 0.0, 0.0<br/>0.0, 0.0, 0.0, 0.0, 0.0, 0.0, 0.0, 0.0, 0.091, 0.0<br/>0.0, 0.0, 0.0, 0.0, 0.0, 0.0, 0.0, 0.0, 0.0, 0.0<br/>0.0, 0.0]<br/>class = Ra's al Ghul>, fillcolor="#fcf4fe"] ;
147 -> 148 ;
149 [label="(...)", fillcolor="#C0C0C0"] ;
148 -> 149 ;
158 [label="(...)", fillcolor="#C0C0C0"] ;
148 -> 158 ;
161 [label=<Uses Magic &le; 0.5<br/>gini = 0.5<br/>samples = 1.5%<br/>value = [0.0, 0.0, 0.0, 0.0, 0.0, 0.0, 0.0, 0.0, 0.0, 0.0<br/>0.0, 0.0, 0.0, 0.0, 0.0, 0.0, 0.0, 0.0, 0.0, 0.0<br/>0.0, 0.0, 0.0, 0.0, 0.0, 0.0, 0.0, 0.0, 0.0, 0.0<br/>0.0, 0.0, 0.0, 0.0, 0.0, 0.5, 0.0, 0.0, 0.0, 0.0<br/>0.0, 0.0, 0.0, 0.0, 0.0, 0.0, 0.0, 0.0, 0.0, 0.0<br/>0.0, 0.0, 0.0, 0.0, 0.5, 0.0, 0.0, 0.0, 0.0, 0.0<br/>0.0, 0.0, 0.0, 0.0, 0.0, 0.0, 0.0, 0.0, 0.0, 0.0<br/>0.0, 0.0, 0.0, 0.0, 0.0, 0.0, 0.0, 0.0, 0.0, 0.0<br/>0.0, 0.0, 0.0, 0.0, 0.0, 0.0, 0.0, 0.0, 0.0, 0.0<br/>0.0, 0.0, 0.0, 0.0, 0.0, 0.0, 0.0, 0.0, 0.0, 0.0<br/>0.0, 0.0, 0.0, 0.0, 0.0, 0.0, 0.0, 0.0, 0.0, 0.0<br/>0.0, 0.0, 0.0, 0.0, 0.0, 0.0, 0.0, 0.0, 0.0, 0.0<br/>0.0, 0.0, 0.0, 0.0, 0.0, 0.0, 0.0, 0.0, 0.0, 0.0<br/>0.0, 0.0]<br/>class = Jessica Jones>, fillcolor="#ffffff"] ;
147 -> 161 ;
162 [label="(...)", fillcolor="#C0C0C0"] ;
161 -> 162 ;
163 [label="(...)", fillcolor="#C0C0C0"] ;
161 -> 163 ;
164 [label=<Uses Magic &le; 0.5<br/>gini = 0.844<br/>samples = 5.4%<br/>value = [0.0, 0.0, 0.214, 0.0, 0.0, 0.0, 0.0, 0.0, 0.0, 0.0<br/>0.0, 0.0, 0.0, 0.0, 0.0, 0.0, 0.0, 0.0, 0.0, 0.0<br/>0.143, 0.0, 0.0, 0.0, 0.0, 0.0, 0.0, 0.0, 0.143, 0.0<br/>0.0, 0.0, 0.0, 0.0, 0.107, 0.0, 0.0, 0.0, 0.0, 0.0<br/>0.0, 0.0, 0.0, 0.0, 0.0, 0.0, 0.0, 0.0, 0.0, 0.0<br/>0.0, 0.0, 0.0, 0.0, 0.0, 0.0, 0.0, 0.0, 0.0, 0.0<br/>0.0, 0.0, 0.0, 0.0, 0.0, 0.0, 0.0, 0.0, 0.0, 0.0<br/>0.0, 0.143, 0.0, 0.0, 0.0, 0.0, 0.0, 0.0, 0.0, 0.0<br/>0.0, 0.0, 0.0, 0.0, 0.0, 0.0, 0.0, 0.0, 0.0, 0.0<br/>0.0, 0.0, 0.0, 0.071, 0.0, 0.0, 0.0, 0.0, 0.0, 0.0<br/>0.0, 0.0, 0.0, 0.0, 0.0, 0.0, 0.0, 0.0, 0.0, 0.0<br/>0.0, 0.0, 0.0, 0.0, 0.0, 0.0, 0.0, 0.0, 0.0, 0.0<br/>0.0, 0.0, 0.179, 0.0, 0.0, 0.0, 0.0, 0.0, 0.0, 0.0<br/>0.0, 0.0]<br/>class = Wonder Woman>, fillcolor="#fefaf6"] ;
108 -> 164 ;
165 [label=<Genre Marvel &le; 0.5<br/>gini = 0.787<br/>samples = 3.6%<br/>value = [0.0, 0.0, 0.0, 0.0, 0.0, 0.0, 0.0, 0.0, 0.0, 0.0<br/>0.0, 0.0, 0.0, 0.0, 0.0, 0.0, 0.0, 0.0, 0.0, 0.0<br/>0.211, 0.0, 0.0, 0.0, 0.0, 0.0, 0.0, 0.0, 0.211, 0.0<br/>0.0, 0.0, 0.0, 0.0, 0.0, 0.0, 0.0, 0.0, 0.0, 0.0<br/>0.0, 0.0, 0.0, 0.0, 0.0, 0.0, 0.0, 0.0, 0.0, 0.0<br/>0.0, 0.0, 0.0, 0.0, 0.0, 0.0, 0.0, 0.0, 0.0, 0.0<br/>0.0, 0.0, 0.0, 0.0, 0.0, 0.0, 0.0, 0.0, 0.0, 0.0<br/>0.0, 0.211, 0.0, 0.0, 0.0, 0.0, 0.0, 0.0, 0.0, 0.0<br/>0.0, 0.0, 0.0, 0.0, 0.0, 0.0, 0.0, 0.0, 0.0, 0.0<br/>0.0, 0.0, 0.0, 0.105, 0.0, 0.0, 0.0, 0.0, 0.0, 0.0<br/>0.0, 0.0, 0.0, 0.0, 0.0, 0.0, 0.0, 0.0, 0.0, 0.0<br/>0.0, 0.0, 0.0, 0.0, 0.0, 0.0, 0.0, 0.0, 0.0, 0.0<br/>0.0, 0.0, 0.263, 0.0, 0.0, 0.0, 0.0, 0.0, 0.0, 0.0<br/>0.0, 0.0]<br/>class = Carnage>, fillcolor="#fdf2f2"] ;
164 -> 165 ;
166 [label=<Shapeshifter &le; 0.5<br/>gini = 0.735<br/>samples = 2.7%<br/>value = [0.0, 0.0, 0.0, 0.0, 0.0, 0.0, 0.0, 0.0, 0.0, 0.0<br/>0.0, 0.0, 0.0, 0.0, 0.0, 0.0, 0.0, 0.0, 0.0, 0.0<br/>0.286, 0.0, 0.0, 0.0, 0.0, 0.0, 0.0, 0.0, 0.286, 0.0<br/>0.0, 0.0, 0.0, 0.0, 0.0, 0.0, 0.0, 0.0, 0.0, 0.0<br/>0.0, 0.0, 0.0, 0.0, 0.0, 0.0, 0.0, 0.0, 0.0, 0.0<br/>0.0, 0.0, 0.0, 0.0, 0.0, 0.0, 0.0, 0.0, 0.0, 0.0<br/>0.0, 0.0, 0.0, 0.0, 0.0, 0.0, 0.0, 0.0, 0.0, 0.0<br/>0.0, 0.286, 0.0, 0.0, 0.0, 0.0, 0.0, 0.0, 0.0, 0.0<br/>0.0, 0.0, 0.0, 0.0, 0.0, 0.0, 0.0, 0.0, 0.0, 0.0<br/>0.0, 0.0, 0.0, 0.143, 0.0, 0.0, 0.0, 0.0, 0.0, 0.0<br/>0.0, 0.0, 0.0, 0.0, 0.0, 0.0, 0.0, 0.0, 0.0, 0.0<br/>0.0, 0.0, 0.0, 0.0, 0.0, 0.0, 0.0, 0.0, 0.0, 0.0<br/>0.0, 0.0, 0.0, 0.0, 0.0, 0.0, 0.0, 0.0, 0.0, 0.0<br/>0.0, 0.0]<br/>class = Nightwing>, fillcolor="#ffffff"] ;
165 -> 166 ;
167 [label="(...)", fillcolor="#C0C0C0"] ;
166 -> 167 ;
172 [label="(...)", fillcolor="#C0C0C0"] ;
166 -> 172 ;
173 [label=<gini = 0.0<br/>samples = 0.9%<br/>value = [0.0, 0.0, 0.0, 0.0, 0.0, 0.0, 0.0, 0.0, 0.0, 0.0<br/>0.0, 0.0, 0.0, 0.0, 0.0, 0.0, 0.0, 0.0, 0.0, 0.0<br/>0.0, 0.0, 0.0, 0.0, 0.0, 0.0, 0.0, 0.0, 0.0, 0.0<br/>0.0, 0.0, 0.0, 0.0, 0.0, 0.0, 0.0, 0.0, 0.0, 0.0<br/>0.0, 0.0, 0.0, 0.0, 0.0, 0.0, 0.0, 0.0, 0.0, 0.0<br/>0.0, 0.0, 0.0, 0.0, 0.0, 0.0, 0.0, 0.0, 0.0, 0.0<br/>0.0, 0.0, 0.0, 0.0, 0.0, 0.0, 0.0, 0.0, 0.0, 0.0<br/>0.0, 0.0, 0.0, 0.0, 0.0, 0.0, 0.0, 0.0, 0.0, 0.0<br/>0.0, 0.0, 0.0, 0.0, 0.0, 0.0, 0.0, 0.0, 0.0, 0.0<br/>0.0, 0.0, 0.0, 0.0, 0.0, 0.0, 0.0, 0.0, 0.0, 0.0<br/>0.0, 0.0, 0.0, 0.0, 0.0, 0.0, 0.0, 0.0, 0.0, 0.0<br/>0.0, 0.0, 0.0, 0.0, 0.0, 0.0, 0.0, 0.0, 0.0, 0.0<br/>0.0, 0.0, 1.0, 0.0, 0.0, 0.0, 0.0, 0.0, 0.0, 0.0<br/>0.0, 0.0]<br/>class = Carnage>, fillcolor="#e53941"] ;
165 -> 173 ;
174 [label=<From Earth &le; 0.5<br/>gini = 0.444<br/>samples = 1.8%<br/>value = [0.0, 0.0, 0.667, 0.0, 0.0, 0.0, 0.0, 0.0, 0.0, 0.0<br/>0.0, 0.0, 0.0, 0.0, 0.0, 0.0, 0.0, 0.0, 0.0, 0.0<br/>0.0, 0.0, 0.0, 0.0, 0.0, 0.0, 0.0, 0.0, 0.0, 0.0<br/>0.0, 0.0, 0.0, 0.0, 0.333, 0.0, 0.0, 0.0, 0.0, 0.0<br/>0.0, 0.0, 0.0, 0.0, 0.0, 0.0, 0.0, 0.0, 0.0, 0.0<br/>0.0, 0.0, 0.0, 0.0, 0.0, 0.0, 0.0, 0.0, 0.0, 0.0<br/>0.0, 0.0, 0.0, 0.0, 0.0, 0.0, 0.0, 0.0, 0.0, 0.0<br/>0.0, 0.0, 0.0, 0.0, 0.0, 0.0, 0.0, 0.0, 0.0, 0.0<br/>0.0, 0.0, 0.0, 0.0, 0.0, 0.0, 0.0, 0.0, 0.0, 0.0<br/>0.0, 0.0, 0.0, 0.0, 0.0, 0.0, 0.0, 0.0, 0.0, 0.0<br/>0.0, 0.0, 0.0, 0.0, 0.0, 0.0, 0.0, 0.0, 0.0, 0.0<br/>0.0, 0.0, 0.0, 0.0, 0.0, 0.0, 0.0, 0.0, 0.0, 0.0<br/>0.0, 0.0, 0.0, 0.0, 0.0, 0.0, 0.0, 0.0, 0.0, 0.0<br/>0.0, 0.0]<br/>class = Wonder Woman>, fillcolor="#f2c79c"] ;
164 -> 174 ;
175 [label=<gini = 0.0<br/>samples = 1.2%<br/>value = [0.0, 0.0, 1.0, 0.0, 0.0, 0.0, 0.0, 0.0, 0.0, 0.0<br/>0.0, 0.0, 0.0, 0.0, 0.0, 0.0, 0.0, 0.0, 0.0, 0.0<br/>0.0, 0.0, 0.0, 0.0, 0.0, 0.0, 0.0, 0.0, 0.0, 0.0<br/>0.0, 0.0, 0.0, 0.0, 0.0, 0.0, 0.0, 0.0, 0.0, 0.0<br/>0.0, 0.0, 0.0, 0.0, 0.0, 0.0, 0.0, 0.0, 0.0, 0.0<br/>0.0, 0.0, 0.0, 0.0, 0.0, 0.0, 0.0, 0.0, 0.0, 0.0<br/>0.0, 0.0, 0.0, 0.0, 0.0, 0.0, 0.0, 0.0, 0.0, 0.0<br/>0.0, 0.0, 0.0, 0.0, 0.0, 0.0, 0.0, 0.0, 0.0, 0.0<br/>0.0, 0.0, 0.0, 0.0, 0.0, 0.0, 0.0, 0.0, 0.0, 0.0<br/>0.0, 0.0, 0.0, 0.0, 0.0, 0.0, 0.0, 0.0, 0.0, 0.0<br/>0.0, 0.0, 0.0, 0.0, 0.0, 0.0, 0.0, 0.0, 0.0, 0.0<br/>0.0, 0.0, 0.0, 0.0, 0.0, 0.0, 0.0, 0.0, 0.0, 0.0<br/>0.0, 0.0, 0.0, 0.0, 0.0, 0.0, 0.0, 0.0, 0.0, 0.0<br/>0.0, 0.0]<br/>class = Wonder Woman>, fillcolor="#e58f39"] ;
174 -> 175 ;
176 [label=<gini = 0.0<br/>samples = 0.6%<br/>value = [0.0, 0.0, 0.0, 0.0, 0.0, 0.0, 0.0, 0.0, 0.0, 0.0<br/>0.0, 0.0, 0.0, 0.0, 0.0, 0.0, 0.0, 0.0, 0.0, 0.0<br/>0.0, 0.0, 0.0, 0.0, 0.0, 0.0, 0.0, 0.0, 0.0, 0.0<br/>0.0, 0.0, 0.0, 0.0, 1.0, 0.0, 0.0, 0.0, 0.0, 0.0<br/>0.0, 0.0, 0.0, 0.0, 0.0, 0.0, 0.0, 0.0, 0.0, 0.0<br/>0.0, 0.0, 0.0, 0.0, 0.0, 0.0, 0.0, 0.0, 0.0, 0.0<br/>0.0, 0.0, 0.0, 0.0, 0.0, 0.0, 0.0, 0.0, 0.0, 0.0<br/>0.0, 0.0, 0.0, 0.0, 0.0, 0.0, 0.0, 0.0, 0.0, 0.0<br/>0.0, 0.0, 0.0, 0.0, 0.0, 0.0, 0.0, 0.0, 0.0, 0.0<br/>0.0, 0.0, 0.0, 0.0, 0.0, 0.0, 0.0, 0.0, 0.0, 0.0<br/>0.0, 0.0, 0.0, 0.0, 0.0, 0.0, 0.0, 0.0, 0.0, 0.0<br/>0.0, 0.0, 0.0, 0.0, 0.0, 0.0, 0.0, 0.0, 0.0, 0.0<br/>0.0, 0.0, 0.0, 0.0, 0.0, 0.0, 0.0, 0.0, 0.0, 0.0<br/>0.0, 0.0]<br/>class = Daredevil>, fillcolor="#41e539"] ;
174 -> 176 ;
177 [label=<Mystic Power Source &le; 0.5<br/>gini = 0.942<br/>samples = 18.3%<br/>value = [0.0, 0.0, 0.0, 0.0, 0.0, 0.019, 0.0, 0.019, 0.0, 0.0<br/>0.0, 0.0, 0.0, 0.0, 0.029, 0.0, 0.0, 0.029, 0.0, 0.0<br/>0.0, 0.0, 0.0, 0.0, 0.0, 0.0, 0.0, 0.0, 0.0, 0.0<br/>0.019, 0.0, 0.0, 0.039, 0.0, 0.0, 0.0, 0.0, 0.0, 0.0<br/>0.0, 0.0, 0.0, 0.0, 0.0, 0.0, 0.0, 0.0, 0.029, 0.0<br/>0.0, 0.0, 0.0, 0.0, 0.0, 0.0, 0.0, 0.0, 0.0, 0.0<br/>0.0, 0.0, 0.0, 0.0, 0.0, 0.0, 0.0, 0.0, 0.0, 0.0<br/>0.0, 0.0, 0.078, 0.0, 0.058, 0.029, 0.0, 0.0, 0.068<br/>0.0, 0.049, 0.0, 0.0, 0.0, 0.0, 0.0, 0.0, 0.029, 0.0<br/>0.01, 0.0, 0.029, 0.049, 0.0, 0.039, 0.0, 0.068, 0.0<br/>0.0, 0.039, 0.0, 0.107, 0.0, 0.0, 0.0, 0.0, 0.0, 0.0<br/>0.0, 0.0, 0.0, 0.0, 0.0, 0.0, 0.0, 0.0, 0.0, 0.049<br/>0.0, 0.019, 0.0, 0.0, 0.0, 0.097, 0.0, 0.0, 0.0, 0.0<br/>0.0, 0.0, 0.0, 0.0]<br/>class = Brainiac>, fillcolor="#fffdff"] ;
61 -> 177 ;
178 [label=<Energy Projection &le; 0.5<br/>gini = 0.931<br/>samples = 14.4%<br/>value = [0.0, 0.0, 0.0, 0.0, 0.0, 0.025, 0.0, 0.025, 0.0, 0.0<br/>0.0, 0.0, 0.0, 0.0, 0.038, 0.0, 0.0, 0.038, 0.0, 0.0<br/>0.0, 0.0, 0.0, 0.0, 0.0, 0.0, 0.0, 0.0, 0.0, 0.0<br/>0.025, 0.0, 0.0, 0.05, 0.0, 0.0, 0.0, 0.0, 0.0, 0.0<br/>0.0, 0.0, 0.0, 0.0, 0.0, 0.0, 0.0, 0.0, 0.038, 0.0<br/>0.0, 0.0, 0.0, 0.0, 0.0, 0.0, 0.0, 0.0, 0.0, 0.0<br/>0.0, 0.0, 0.0, 0.0, 0.0, 0.0, 0.0, 0.0, 0.0, 0.0<br/>0.0, 0.0, 0.1, 0.0, 0.0, 0.0, 0.0, 0.0, 0.088, 0.0<br/>0.062, 0.0, 0.0, 0.0, 0.0, 0.0, 0.0, 0.038, 0.0, 0.0<br/>0.0, 0.038, 0.062, 0.0, 0.05, 0.0, 0.088, 0.0, 0.0<br/>0.05, 0.0, 0.0, 0.0, 0.0, 0.0, 0.0, 0.0, 0.0, 0.0<br/>0.0, 0.0, 0.0, 0.0, 0.0, 0.0, 0.0, 0.0, 0.062, 0.0<br/>0.0, 0.0, 0.0, 0.0, 0.125, 0.0, 0.0, 0.0, 0.0, 0.0<br/>0.0, 0.0, 0.0]<br/>class = Abomination>, fillcolor="#fefafa"] ;
177 -> 178 ;
179 [label=<Regeneration &le; 0.5<br/>gini = 0.916<br/>samples = 11.7%<br/>value = [0.0, 0.0, 0.0, 0.0, 0.0, 0.031, 0.0, 0.031, 0.0, 0.0<br/>0.0, 0.0, 0.0, 0.0, 0.0, 0.0, 0.0, 0.046, 0.0, 0.0<br/>0.0, 0.0, 0.0, 0.0, 0.0, 0.0, 0.0, 0.0, 0.0, 0.0<br/>0.031, 0.0, 0.0, 0.062, 0.0, 0.0, 0.0, 0.0, 0.0, 0.0<br/>0.0, 0.0, 0.0, 0.0, 0.0, 0.0, 0.0, 0.0, 0.046, 0.0<br/>0.0, 0.0, 0.0, 0.0, 0.0, 0.0, 0.0, 0.0, 0.0, 0.0<br/>0.0, 0.0, 0.0, 0.0, 0.0, 0.0, 0.0, 0.0, 0.0, 0.0<br/>0.0, 0.0, 0.0, 0.0, 0.0, 0.0, 0.0, 0.0, 0.108, 0.0<br/>0.077, 0.0, 0.0, 0.0, 0.0, 0.0, 0.0, 0.046, 0.0, 0.0<br/>0.0, 0.046, 0.077, 0.0, 0.0, 0.0, 0.108, 0.0, 0.0<br/>0.062, 0.0, 0.0, 0.0, 0.0, 0.0, 0.0, 0.0, 0.0, 0.0<br/>0.0, 0.0, 0.0, 0.0, 0.0, 0.0, 0.0, 0.0, 0.077, 0.0<br/>0.0, 0.0, 0.0, 0.0, 0.154, 0.0, 0.0, 0.0, 0.0, 0.0<br/>0.0, 0.0, 0.0]<br/>class = Abomination>, fillcolor="#fef5f5"] ;
178 -> 179 ;
180 [label=<Tech Genius &le; 0.5<br/>gini = 0.882<br/>samples = 7.5%<br/>value = [0.0, 0.0, 0.0, 0.0, 0.0, 0.048, 0.0, 0.048, 0.0, 0.0<br/>0.0, 0.0, 0.0, 0.0, 0.0, 0.0, 0.0, 0.0, 0.0, 0.0<br/>0.0, 0.0, 0.0, 0.0, 0.0, 0.0, 0.0, 0.0, 0.0, 0.0<br/>0.0, 0.0, 0.0, 0.0, 0.0, 0.0, 0.0, 0.0, 0.0, 0.0<br/>0.0, 0.0, 0.0, 0.0, 0.0, 0.0, 0.0, 0.0, 0.071, 0.0<br/>0.0, 0.0, 0.0, 0.0, 0.0, 0.0, 0.0, 0.0, 0.0, 0.0<br/>0.0, 0.0, 0.0, 0.0, 0.0, 0.0, 0.0, 0.0, 0.0, 0.0<br/>0.0, 0.0, 0.0, 0.0, 0.0, 0.0, 0.0, 0.0, 0.167, 0.0<br/>0.119, 0.0, 0.0, 0.0, 0.0, 0.0, 0.0, 0.071, 0.0, 0.0<br/>0.0, 0.071, 0.119, 0.0, 0.0, 0.0, 0.167, 0.0, 0.0<br/>0.0, 0.0, 0.0, 0.0, 0.0, 0.0, 0.0, 0.0, 0.0, 0.0<br/>0.0, 0.0, 0.0, 0.0, 0.0, 0.0, 0.0, 0.0, 0.119, 0.0<br/>0.0, 0.0, 0.0, 0.0, 0.0, 0.0, 0.0, 0.0, 0.0, 0.0<br/>0.0, 0.0, 0.0]<br/>class = Nick Fury>, fillcolor="#ffffff"] ;
179 -> 180 ;
181 [label=<Trained Assassin &le; 0.5<br/>gini = 0.802<br/>samples = 4.5%<br/>value = [0.0, 0.0, 0.0, 0.0, 0.0, 0.087, 0.0, 0.0, 0.0, 0.0<br/>0.0, 0.0, 0.0, 0.0, 0.0, 0.0, 0.0, 0.0, 0.0, 0.0<br/>0.0, 0.0, 0.0, 0.0, 0.0, 0.0, 0.0, 0.0, 0.0, 0.0<br/>0.0, 0.0, 0.0, 0.0, 0.0, 0.0, 0.0, 0.0, 0.0, 0.0<br/>0.0, 0.0, 0.0, 0.0, 0.0, 0.0, 0.0, 0.0, 0.13, 0.0<br/>0.0, 0.0, 0.0, 0.0, 0.0, 0.0, 0.0, 0.0, 0.0, 0.0<br/>0.0, 0.0, 0.0, 0.0, 0.0, 0.0, 0.0, 0.0, 0.0, 0.0<br/>0.0, 0.0, 0.0, 0.0, 0.0, 0.0, 0.0, 0.0, 0.0, 0.0<br/>0.0, 0.0, 0.0, 0.0, 0.0, 0.0, 0.0, 0.13, 0.0, 0.0<br/>0.0, 0.13, 0.0, 0.0, 0.0, 0.0, 0.304, 0.0, 0.0, 0.0<br/>0.0, 0.0, 0.0, 0.0, 0.0, 0.0, 0.0, 0.0, 0.0, 0.0<br/>0.0, 0.0, 0.0, 0.0, 0.0, 0.0, 0.0, 0.217, 0.0, 0.0<br/>0.0, 0.0, 0.0, 0.0, 0.0, 0.0, 0.0, 0.0, 0.0, 0.0<br/>0.0, 0.0]<br/>class = Scarecrow>, fillcolor="#f8e9fc"] ;
180 -> 181 ;
182 [label="(...)", fillcolor="#C0C0C0"] ;
181 -> 182 ;
187 [label="(...)", fillcolor="#C0C0C0"] ;
181 -> 187 ;
192 [label=<Scientist &le; 0.5<br/>gini = 0.715<br/>samples = 3.0%<br/>value = [0.0, 0.0, 0.0, 0.0, 0.0, 0.0, 0.0, 0.105, 0.0, 0.0<br/>0.0, 0.0, 0.0, 0.0, 0.0, 0.0, 0.0, 0.0, 0.0, 0.0<br/>0.0, 0.0, 0.0, 0.0, 0.0, 0.0, 0.0, 0.0, 0.0, 0.0<br/>0.0, 0.0, 0.0, 0.0, 0.0, 0.0, 0.0, 0.0, 0.0, 0.0<br/>0.0, 0.0, 0.0, 0.0, 0.0, 0.0, 0.0, 0.0, 0.0, 0.0<br/>0.0, 0.0, 0.0, 0.0, 0.0, 0.0, 0.0, 0.0, 0.0, 0.0<br/>0.0, 0.0, 0.0, 0.0, 0.0, 0.0, 0.0, 0.0, 0.0, 0.0<br/>0.0, 0.0, 0.0, 0.0, 0.0, 0.0, 0.0, 0.0, 0.368, 0.0<br/>0.263, 0.0, 0.0, 0.0, 0.0, 0.0, 0.0, 0.0, 0.0, 0.0<br/>0.0, 0.0, 0.263, 0.0, 0.0, 0.0, 0.0, 0.0, 0.0, 0.0<br/>0.0, 0.0, 0.0, 0.0, 0.0, 0.0, 0.0, 0.0, 0.0, 0.0<br/>0.0, 0.0, 0.0, 0.0, 0.0, 0.0, 0.0, 0.0, 0.0, 0.0<br/>0.0, 0.0, 0.0, 0.0, 0.0, 0.0, 0.0, 0.0, 0.0, 0.0<br/>0.0, 0.0]<br/>class = Nick Fury>, fillcolor="#e3e4fb"] ;
180 -> 192 ;
193 [label="(...)", fillcolor="#C0C0C0"] ;
192 -> 193 ;
198 [label="(...)", fillcolor="#C0C0C0"] ;
192 -> 198 ;
199 [label=<Shapeshifter &le; 0.5<br/>gini = 0.726<br/>samples = 4.2%<br/>value = [0.0, 0.0, 0.0, 0.0, 0.0, 0.0, 0.0, 0.0, 0.0, 0.0<br/>0.0, 0.0, 0.0, 0.0, 0.0, 0.0, 0.0, 0.13, 0.0, 0.0<br/>0.0, 0.0, 0.0, 0.0, 0.0, 0.0, 0.0, 0.0, 0.0, 0.0<br/>0.087, 0.0, 0.0, 0.174, 0.0, 0.0, 0.0, 0.0, 0.0, 0.0<br/>0.0, 0.0, 0.0, 0.0, 0.0, 0.0, 0.0, 0.0, 0.0, 0.0<br/>0.0, 0.0, 0.0, 0.0, 0.0, 0.0, 0.0, 0.0, 0.0, 0.0<br/>0.0, 0.0, 0.0, 0.0, 0.0, 0.0, 0.0, 0.0, 0.0, 0.0<br/>0.0, 0.0, 0.0, 0.0, 0.0, 0.0, 0.0, 0.0, 0.0, 0.0<br/>0.0, 0.0, 0.0, 0.0, 0.0, 0.0, 0.0, 0.0, 0.0, 0.0<br/>0.0, 0.0, 0.0, 0.0, 0.0, 0.0, 0.0, 0.0, 0.0, 0.174<br/>0.0, 0.0, 0.0, 0.0, 0.0, 0.0, 0.0, 0.0, 0.0, 0.0<br/>0.0, 0.0, 0.0, 0.0, 0.0, 0.0, 0.0, 0.0, 0.0, 0.0<br/>0.0, 0.0, 0.0, 0.435, 0.0, 0.0, 0.0, 0.0, 0.0, 0.0<br/>0.0, 0.0]<br/>class = Abomination>, fillcolor="#f7c0c0"] ;
179 -> 199 ;
200 [label=<Wears Mask &le; 0.5<br/>gini = 0.734<br/>samples = 3.0%<br/>value = [0.0, 0.0, 0.0, 0.0, 0.0, 0.0, 0.0, 0.0, 0.0, 0.0<br/>0.0, 0.0, 0.0, 0.0, 0.0, 0.0, 0.0, 0.231, 0.0, 0.0<br/>0.0, 0.0, 0.0, 0.0, 0.0, 0.0, 0.0, 0.0, 0.0, 0.0<br/>0.154, 0.0, 0.0, 0.308, 0.0, 0.0, 0.0, 0.0, 0.0, 0.0<br/>0.0, 0.0, 0.0, 0.0, 0.0, 0.0, 0.0, 0.0, 0.0, 0.0<br/>0.0, 0.0, 0.0, 0.0, 0.0, 0.0, 0.0, 0.0, 0.0, 0.0<br/>0.0, 0.0, 0.0, 0.0, 0.0, 0.0, 0.0, 0.0, 0.0, 0.0<br/>0.0, 0.0, 0.0, 0.0, 0.0, 0.0, 0.0, 0.0, 0.0, 0.0<br/>0.0, 0.0, 0.0, 0.0, 0.0, 0.0, 0.0, 0.0, 0.0, 0.0<br/>0.0, 0.0, 0.0, 0.0, 0.0, 0.0, 0.0, 0.0, 0.0, 0.308<br/>0.0, 0.0, 0.0, 0.0, 0.0, 0.0, 0.0, 0.0, 0.0, 0.0<br/>0.0, 0.0, 0.0, 0.0, 0.0, 0.0, 0.0, 0.0, 0.0, 0.0<br/>0.0, 0.0, 0.0, 0.0, 0.0, 0.0, 0.0, 0.0, 0.0, 0.0<br/>0.0, 0.0]<br/>class = Winter Soldier>, fillcolor="#ffffff"] ;
199 -> 200 ;
201 [label="(...)", fillcolor="#C0C0C0"] ;
200 -> 201 ;
204 [label="(...)", fillcolor="#C0C0C0"] ;
200 -> 204 ;
207 [label=<gini = 0.0<br/>samples = 1.2%<br/>value = [0.0, 0.0, 0.0, 0.0, 0.0, 0.0, 0.0, 0.0, 0.0, 0.0<br/>0.0, 0.0, 0.0, 0.0, 0.0, 0.0, 0.0, 0.0, 0.0, 0.0<br/>0.0, 0.0, 0.0, 0.0, 0.0, 0.0, 0.0, 0.0, 0.0, 0.0<br/>0.0, 0.0, 0.0, 0.0, 0.0, 0.0, 0.0, 0.0, 0.0, 0.0<br/>0.0, 0.0, 0.0, 0.0, 0.0, 0.0, 0.0, 0.0, 0.0, 0.0<br/>0.0, 0.0, 0.0, 0.0, 0.0, 0.0, 0.0, 0.0, 0.0, 0.0<br/>0.0, 0.0, 0.0, 0.0, 0.0, 0.0, 0.0, 0.0, 0.0, 0.0<br/>0.0, 0.0, 0.0, 0.0, 0.0, 0.0, 0.0, 0.0, 0.0, 0.0<br/>0.0, 0.0, 0.0, 0.0, 0.0, 0.0, 0.0, 0.0, 0.0, 0.0<br/>0.0, 0.0, 0.0, 0.0, 0.0, 0.0, 0.0, 0.0, 0.0, 0.0<br/>0.0, 0.0, 0.0, 0.0, 0.0, 0.0, 0.0, 0.0, 0.0, 0.0<br/>0.0, 0.0, 0.0, 0.0, 0.0, 0.0, 0.0, 0.0, 0.0, 0.0<br/>0.0, 0.0, 0.0, 1.0, 0.0, 0.0, 0.0, 0.0, 0.0, 0.0<br/>0.0, 0.0]<br/>class = Abomination>, fillcolor="#e53939"] ;
199 -> 207 ;
208 [label=<Uses Weapon &le; 0.5<br/>gini = 0.604<br/>samples = 2.7%<br/>value = [0.0, 0.0, 0.0, 0.0, 0.0, 0.0, 0.0, 0.0, 0.0, 0.0<br/>0.0, 0.0, 0.0, 0.0, 0.2, 0.0, 0.0, 0.0, 0.0, 0.0<br/>0.0, 0.0, 0.0, 0.0, 0.0, 0.0, 0.0, 0.0, 0.0, 0.0<br/>0.0, 0.0, 0.0, 0.0, 0.0, 0.0, 0.0, 0.0, 0.0, 0.0<br/>0.0, 0.0, 0.0, 0.0, 0.0, 0.0, 0.0, 0.0, 0.0, 0.0<br/>0.0, 0.0, 0.0, 0.0, 0.0, 0.0, 0.0, 0.0, 0.0, 0.0<br/>0.0, 0.0, 0.0, 0.0, 0.0, 0.0, 0.0, 0.0, 0.0, 0.0<br/>0.0, 0.0, 0.533, 0.0, 0.0, 0.0, 0.0, 0.0, 0.0, 0.0<br/>0.0, 0.0, 0.0, 0.0, 0.0, 0.0, 0.0, 0.0, 0.0, 0.0<br/>0.0, 0.0, 0.0, 0.0, 0.267, 0.0, 0.0, 0.0, 0.0, 0.0<br/>0.0, 0.0, 0.0, 0.0, 0.0, 0.0, 0.0, 0.0, 0.0, 0.0<br/>0.0, 0.0, 0.0, 0.0, 0.0, 0.0, 0.0, 0.0, 0.0, 0.0<br/>0.0, 0.0, 0.0, 0.0, 0.0, 0.0, 0.0, 0.0, 0.0, 0.0<br/>0.0, 0.0]<br/>class = Blade>, fillcolor="#b7cbf6"] ;
178 -> 208 ;
209 [label=<gini = 0.0<br/>samples = 1.2%<br/>value = [0.0, 0.0, 0.0, 0.0, 0.0, 0.0, 0.0, 0.0, 0.0, 0.0<br/>0.0, 0.0, 0.0, 0.0, 0.0, 0.0, 0.0, 0.0, 0.0, 0.0<br/>0.0, 0.0, 0.0, 0.0, 0.0, 0.0, 0.0, 0.0, 0.0, 0.0<br/>0.0, 0.0, 0.0, 0.0, 0.0, 0.0, 0.0, 0.0, 0.0, 0.0<br/>0.0, 0.0, 0.0, 0.0, 0.0, 0.0, 0.0, 0.0, 0.0, 0.0<br/>0.0, 0.0, 0.0, 0.0, 0.0, 0.0, 0.0, 0.0, 0.0, 0.0<br/>0.0, 0.0, 0.0, 0.0, 0.0, 0.0, 0.0, 0.0, 0.0, 0.0<br/>0.0, 0.0, 1.0, 0.0, 0.0, 0.0, 0.0, 0.0, 0.0, 0.0<br/>0.0, 0.0, 0.0, 0.0, 0.0, 0.0, 0.0, 0.0, 0.0, 0.0<br/>0.0, 0.0, 0.0, 0.0, 0.0, 0.0, 0.0, 0.0, 0.0, 0.0<br/>0.0, 0.0, 0.0, 0.0, 0.0, 0.0, 0.0, 0.0, 0.0, 0.0<br/>0.0, 0.0, 0.0, 0.0, 0.0, 0.0, 0.0, 0.0, 0.0, 0.0<br/>0.0, 0.0, 0.0, 0.0, 0.0, 0.0, 0.0, 0.0, 0.0, 0.0<br/>0.0, 0.0]<br/>class = Blade>, fillcolor="#396fe5"] ;
208 -> 209 ;
210 [label=<Wears Armor &le; 0.5<br/>gini = 0.49<br/>samples = 1.5%<br/>value = [0.0, 0.0, 0.0, 0.0, 0.0, 0.0, 0.0, 0.0, 0.0, 0.0<br/>0.0, 0.0, 0.0, 0.0, 0.429, 0.0, 0.0, 0.0, 0.0, 0.0<br/>0.0, 0.0, 0.0, 0.0, 0.0, 0.0, 0.0, 0.0, 0.0, 0.0<br/>0.0, 0.0, 0.0, 0.0, 0.0, 0.0, 0.0, 0.0, 0.0, 0.0<br/>0.0, 0.0, 0.0, 0.0, 0.0, 0.0, 0.0, 0.0, 0.0, 0.0<br/>0.0, 0.0, 0.0, 0.0, 0.0, 0.0, 0.0, 0.0, 0.0, 0.0<br/>0.0, 0.0, 0.0, 0.0, 0.0, 0.0, 0.0, 0.0, 0.0, 0.0<br/>0.0, 0.0, 0.0, 0.0, 0.0, 0.0, 0.0, 0.0, 0.0, 0.0<br/>0.0, 0.0, 0.0, 0.0, 0.0, 0.0, 0.0, 0.0, 0.0, 0.0<br/>0.0, 0.0, 0.0, 0.0, 0.571, 0.0, 0.0, 0.0, 0.0, 0.0<br/>0.0, 0.0, 0.0, 0.0, 0.0, 0.0, 0.0, 0.0, 0.0, 0.0<br/>0.0, 0.0, 0.0, 0.0, 0.0, 0.0, 0.0, 0.0, 0.0, 0.0<br/>0.0, 0.0, 0.0, 0.0, 0.0, 0.0, 0.0, 0.0, 0.0, 0.0<br/>0.0, 0.0]<br/>class = Two-Face>, fillcolor="#ebcef8"] ;
208 -> 210 ;
211 [label=<gini = 0.0<br/>samples = 0.9%<br/>value = [0.0, 0.0, 0.0, 0.0, 0.0, 0.0, 0.0, 0.0, 0.0, 0.0<br/>0.0, 0.0, 0.0, 0.0, 0.0, 0.0, 0.0, 0.0, 0.0, 0.0<br/>0.0, 0.0, 0.0, 0.0, 0.0, 0.0, 0.0, 0.0, 0.0, 0.0<br/>0.0, 0.0, 0.0, 0.0, 0.0, 0.0, 0.0, 0.0, 0.0, 0.0<br/>0.0, 0.0, 0.0, 0.0, 0.0, 0.0, 0.0, 0.0, 0.0, 0.0<br/>0.0, 0.0, 0.0, 0.0, 0.0, 0.0, 0.0, 0.0, 0.0, 0.0<br/>0.0, 0.0, 0.0, 0.0, 0.0, 0.0, 0.0, 0.0, 0.0, 0.0<br/>0.0, 0.0, 0.0, 0.0, 0.0, 0.0, 0.0, 0.0, 0.0, 0.0<br/>0.0, 0.0, 0.0, 0.0, 0.0, 0.0, 0.0, 0.0, 0.0, 0.0<br/>0.0, 0.0, 0.0, 0.0, 1.0, 0.0, 0.0, 0.0, 0.0, 0.0<br/>0.0, 0.0, 0.0, 0.0, 0.0, 0.0, 0.0, 0.0, 0.0, 0.0<br/>0.0, 0.0, 0.0, 0.0, 0.0, 0.0, 0.0, 0.0, 0.0, 0.0<br/>0.0, 0.0, 0.0, 0.0, 0.0, 0.0, 0.0, 0.0, 0.0, 0.0<br/>0.0, 0.0]<br/>class = Two-Face>, fillcolor="#ae39e5"] ;
210 -> 211 ;
212 [label=<gini = 0.0<br/>samples = 0.6%<br/>value = [0.0, 0.0, 0.0, 0.0, 0.0, 0.0, 0.0, 0.0, 0.0, 0.0<br/>0.0, 0.0, 0.0, 0.0, 1.0, 0.0, 0.0, 0.0, 0.0, 0.0<br/>0.0, 0.0, 0.0, 0.0, 0.0, 0.0, 0.0, 0.0, 0.0, 0.0<br/>0.0, 0.0, 0.0, 0.0, 0.0, 0.0, 0.0, 0.0, 0.0, 0.0<br/>0.0, 0.0, 0.0, 0.0, 0.0, 0.0, 0.0, 0.0, 0.0, 0.0<br/>0.0, 0.0, 0.0, 0.0, 0.0, 0.0, 0.0, 0.0, 0.0, 0.0<br/>0.0, 0.0, 0.0, 0.0, 0.0, 0.0, 0.0, 0.0, 0.0, 0.0<br/>0.0, 0.0, 0.0, 0.0, 0.0, 0.0, 0.0, 0.0, 0.0, 0.0<br/>0.0, 0.0, 0.0, 0.0, 0.0, 0.0, 0.0, 0.0, 0.0, 0.0<br/>0.0, 0.0, 0.0, 0.0, 0.0, 0.0, 0.0, 0.0, 0.0, 0.0<br/>0.0, 0.0, 0.0, 0.0, 0.0, 0.0, 0.0, 0.0, 0.0, 0.0<br/>0.0, 0.0, 0.0, 0.0, 0.0, 0.0, 0.0, 0.0, 0.0, 0.0<br/>0.0, 0.0, 0.0, 0.0, 0.0, 0.0, 0.0, 0.0, 0.0, 0.0<br/>0.0, 0.0]<br/>class = Green Arrow>, fillcolor="#dce539"] ;
210 -> 212 ;
213 [label=<Genre Dc &le; 0.5<br/>gini = 0.677<br/>samples = 3.9%<br/>value = [0.0, 0.0, 0.0, 0.0, 0.0, 0.0, 0.0, 0.0, 0.0, 0.0<br/>0.0, 0.0, 0.0, 0.0, 0.0, 0.0, 0.0, 0.0, 0.0, 0.0<br/>0.0, 0.0, 0.0, 0.0, 0.0, 0.0, 0.0, 0.0, 0.0, 0.0<br/>0.0, 0.0, 0.0, 0.0, 0.0, 0.0, 0.0, 0.0, 0.0, 0.0<br/>0.0, 0.0, 0.0, 0.0, 0.0, 0.0, 0.0, 0.0, 0.0, 0.0<br/>0.0, 0.0, 0.0, 0.0, 0.0, 0.0, 0.0, 0.0, 0.0, 0.0<br/>0.0, 0.0, 0.0, 0.0, 0.0, 0.0, 0.0, 0.0, 0.0, 0.0<br/>0.0, 0.0, 0.0, 0.0, 0.261, 0.13, 0.0, 0.0, 0.0, 0.0<br/>0.0, 0.0, 0.0, 0.0, 0.0, 0.0, 0.0, 0.0, 0.0, 0.043<br/>0.0, 0.0, 0.0, 0.0, 0.0, 0.0, 0.0, 0.0, 0.0, 0.0<br/>0.0, 0.478, 0.0, 0.0, 0.0, 0.0, 0.0, 0.0, 0.0, 0.0<br/>0.0, 0.0, 0.0, 0.0, 0.0, 0.0, 0.0, 0.0, 0.0, 0.087<br/>0.0, 0.0, 0.0, 0.0, 0.0, 0.0, 0.0, 0.0, 0.0, 0.0<br/>0.0, 0.0]<br/>class = Brainiac>, fillcolor="#f7c5f7"] ;
177 -> 213 ;
214 [label=<Tech Genius &le; 0.5<br/>gini = 0.595<br/>samples = 2.4%<br/>value = [0.0, 0.0, 0.0, 0.0, 0.0, 0.0, 0.0, 0.0, 0.0, 0.0<br/>0.0, 0.0, 0.0, 0.0, 0.0, 0.0, 0.0, 0.0, 0.0, 0.0<br/>0.0, 0.0, 0.0, 0.0, 0.0, 0.0, 0.0, 0.0, 0.0, 0.0<br/>0.0, 0.0, 0.0, 0.0, 0.0, 0.0, 0.0, 0.0, 0.0, 0.0<br/>0.0, 0.0, 0.0, 0.0, 0.0, 0.0, 0.0, 0.0, 0.0, 0.0<br/>0.0, 0.0, 0.0, 0.0, 0.0, 0.0, 0.0, 0.0, 0.0, 0.0<br/>0.0, 0.0, 0.0, 0.0, 0.0, 0.0, 0.0, 0.0, 0.0, 0.0<br/>0.0, 0.0, 0.0, 0.0, 0.545, 0.273, 0.0, 0.0, 0.0, 0.0<br/>0.0, 0.0, 0.0, 0.0, 0.0, 0.0, 0.0, 0.0, 0.0, 0.0<br/>0.0, 0.0, 0.0, 0.0, 0.0, 0.0, 0.0, 0.0, 0.0, 0.0<br/>0.0, 0.0, 0.0, 0.0, 0.0, 0.0, 0.0, 0.0, 0.0, 0.0<br/>0.0, 0.0, 0.0, 0.0, 0.0, 0.0, 0.0, 0.0, 0.0, 0.182<br/>0.0, 0.0, 0.0, 0.0, 0.0, 0.0, 0.0, 0.0, 0.0, 0.0<br/>0.0, 0.0]<br/>class = Colossus>, fillcolor="#b5c4f5"] ;
213 -> 214 ;
215 [label=<gini = 0.0<br/>samples = 1.2%<br/>value = [0.0, 0.0, 0.0, 0.0, 0.0, 0.0, 0.0, 0.0, 0.0, 0.0<br/>0.0, 0.0, 0.0, 0.0, 0.0, 0.0, 0.0, 0.0, 0.0, 0.0<br/>0.0, 0.0, 0.0, 0.0, 0.0, 0.0, 0.0, 0.0, 0.0, 0.0<br/>0.0, 0.0, 0.0, 0.0, 0.0, 0.0, 0.0, 0.0, 0.0, 0.0<br/>0.0, 0.0, 0.0, 0.0, 0.0, 0.0, 0.0, 0.0, 0.0, 0.0<br/>0.0, 0.0, 0.0, 0.0, 0.0, 0.0, 0.0, 0.0, 0.0, 0.0<br/>0.0, 0.0, 0.0, 0.0, 0.0, 0.0, 0.0, 0.0, 0.0, 0.0<br/>0.0, 0.0, 0.0, 0.0, 1.0, 0.0, 0.0, 0.0, 0.0, 0.0<br/>0.0, 0.0, 0.0, 0.0, 0.0, 0.0, 0.0, 0.0, 0.0, 0.0<br/>0.0, 0.0, 0.0, 0.0, 0.0, 0.0, 0.0, 0.0, 0.0, 0.0<br/>0.0, 0.0, 0.0, 0.0, 0.0, 0.0, 0.0, 0.0, 0.0, 0.0<br/>0.0, 0.0, 0.0, 0.0, 0.0, 0.0, 0.0, 0.0, 0.0, 0.0<br/>0.0, 0.0, 0.0, 0.0, 0.0, 0.0, 0.0, 0.0, 0.0, 0.0<br/>0.0, 0.0]<br/>class = Colossus>, fillcolor="#3961e5"] ;
214 -> 215 ;
216 [label=<Immortal &le; 0.5<br/>gini = 0.48<br/>samples = 1.2%<br/>value = [0.0, 0.0, 0.0, 0.0, 0.0, 0.0, 0.0, 0.0, 0.0, 0.0<br/>0.0, 0.0, 0.0, 0.0, 0.0, 0.0, 0.0, 0.0, 0.0, 0.0<br/>0.0, 0.0, 0.0, 0.0, 0.0, 0.0, 0.0, 0.0, 0.0, 0.0<br/>0.0, 0.0, 0.0, 0.0, 0.0, 0.0, 0.0, 0.0, 0.0, 0.0<br/>0.0, 0.0, 0.0, 0.0, 0.0, 0.0, 0.0, 0.0, 0.0, 0.0<br/>0.0, 0.0, 0.0, 0.0, 0.0, 0.0, 0.0, 0.0, 0.0, 0.0<br/>0.0, 0.0, 0.0, 0.0, 0.0, 0.0, 0.0, 0.0, 0.0, 0.0<br/>0.0, 0.0, 0.0, 0.0, 0.0, 0.6, 0.0, 0.0, 0.0, 0.0<br/>0.0, 0.0, 0.0, 0.0, 0.0, 0.0, 0.0, 0.0, 0.0, 0.0<br/>0.0, 0.0, 0.0, 0.0, 0.0, 0.0, 0.0, 0.0, 0.0, 0.0<br/>0.0, 0.0, 0.0, 0.0, 0.0, 0.0, 0.0, 0.0, 0.0, 0.0<br/>0.0, 0.0, 0.0, 0.0, 0.0, 0.0, 0.0, 0.0, 0.0, 0.4<br/>0.0, 0.0, 0.0, 0.0, 0.0, 0.0, 0.0, 0.0, 0.0, 0.0<br/>0.0, 0.0]<br/>class = Nightcrawler>, fillcolor="#bdc7f6"] ;
214 -> 216 ;
217 [label=<gini = 0.0<br/>samples = 0.9%<br/>value = [0.0, 0.0, 0.0, 0.0, 0.0, 0.0, 0.0, 0.0, 0.0, 0.0<br/>0.0, 0.0, 0.0, 0.0, 0.0, 0.0, 0.0, 0.0, 0.0, 0.0<br/>0.0, 0.0, 0.0, 0.0, 0.0, 0.0, 0.0, 0.0, 0.0, 0.0<br/>0.0, 0.0, 0.0, 0.0, 0.0, 0.0, 0.0, 0.0, 0.0, 0.0<br/>0.0, 0.0, 0.0, 0.0, 0.0, 0.0, 0.0, 0.0, 0.0, 0.0<br/>0.0, 0.0, 0.0, 0.0, 0.0, 0.0, 0.0, 0.0, 0.0, 0.0<br/>0.0, 0.0, 0.0, 0.0, 0.0, 0.0, 0.0, 0.0, 0.0, 0.0<br/>0.0, 0.0, 0.0, 0.0, 0.0, 1.0, 0.0, 0.0, 0.0, 0.0<br/>0.0, 0.0, 0.0, 0.0, 0.0, 0.0, 0.0, 0.0, 0.0, 0.0<br/>0.0, 0.0, 0.0, 0.0, 0.0, 0.0, 0.0, 0.0, 0.0, 0.0<br/>0.0, 0.0, 0.0, 0.0, 0.0, 0.0, 0.0, 0.0, 0.0, 0.0<br/>0.0, 0.0, 0.0, 0.0, 0.0, 0.0, 0.0, 0.0, 0.0, 0.0<br/>0.0, 0.0, 0.0, 0.0, 0.0, 0.0, 0.0, 0.0, 0.0, 0.0<br/>0.0, 0.0]<br/>class = Nightcrawler>, fillcolor="#3958e5"] ;
216 -> 217 ;
218 [label=<gini = 0.0<br/>samples = 0.3%<br/>value = [0.0, 0.0, 0.0, 0.0, 0.0, 0.0, 0.0, 0.0, 0.0, 0.0<br/>0.0, 0.0, 0.0, 0.0, 0.0, 0.0, 0.0, 0.0, 0.0, 0.0<br/>0.0, 0.0, 0.0, 0.0, 0.0, 0.0, 0.0, 0.0, 0.0, 0.0<br/>0.0, 0.0, 0.0, 0.0, 0.0, 0.0, 0.0, 0.0, 0.0, 0.0<br/>0.0, 0.0, 0.0, 0.0, 0.0, 0.0, 0.0, 0.0, 0.0, 0.0<br/>0.0, 0.0, 0.0, 0.0, 0.0, 0.0, 0.0, 0.0, 0.0, 0.0<br/>0.0, 0.0, 0.0, 0.0, 0.0, 0.0, 0.0, 0.0, 0.0, 0.0<br/>0.0, 0.0, 0.0, 0.0, 0.0, 0.0, 0.0, 0.0, 0.0, 0.0<br/>0.0, 0.0, 0.0, 0.0, 0.0, 0.0, 0.0, 0.0, 0.0, 0.0<br/>0.0, 0.0, 0.0, 0.0, 0.0, 0.0, 0.0, 0.0, 0.0, 0.0<br/>0.0, 0.0, 0.0, 0.0, 0.0, 0.0, 0.0, 0.0, 0.0, 0.0<br/>0.0, 0.0, 0.0, 0.0, 0.0, 0.0, 0.0, 0.0, 0.0, 1.0<br/>0.0, 0.0, 0.0, 0.0, 0.0, 0.0, 0.0, 0.0, 0.0, 0.0<br/>0.0, 0.0]<br/>class = Juggernaut>, fillcolor="#e53958"] ;
216 -> 218 ;
219 [label=<Leader &le; 0.5<br/>gini = 0.153<br/>samples = 1.5%<br/>value = [0.0, 0.0, 0.0, 0.0, 0.0, 0.0, 0.0, 0.0, 0.0, 0.0<br/>0.0, 0.0, 0.0, 0.0, 0.0, 0.0, 0.0, 0.0, 0.0, 0.0<br/>0.0, 0.0, 0.0, 0.0, 0.0, 0.0, 0.0, 0.0, 0.0, 0.0<br/>0.0, 0.0, 0.0, 0.0, 0.0, 0.0, 0.0, 0.0, 0.0, 0.0<br/>0.0, 0.0, 0.0, 0.0, 0.0, 0.0, 0.0, 0.0, 0.0, 0.0<br/>0.0, 0.0, 0.0, 0.0, 0.0, 0.0, 0.0, 0.0, 0.0, 0.0<br/>0.0, 0.0, 0.0, 0.0, 0.0, 0.0, 0.0, 0.0, 0.0, 0.0<br/>0.0, 0.0, 0.0, 0.0, 0.0, 0.0, 0.0, 0.0, 0.0, 0.0<br/>0.0, 0.0, 0.0, 0.0, 0.0, 0.0, 0.0, 0.0, 0.0, 0.083<br/>0.0, 0.0, 0.0, 0.0, 0.0, 0.0, 0.0, 0.0, 0.0, 0.0<br/>0.0, 0.917, 0.0, 0.0, 0.0, 0.0, 0.0, 0.0, 0.0, 0.0<br/>0.0, 0.0, 0.0, 0.0, 0.0, 0.0, 0.0, 0.0, 0.0, 0.0<br/>0.0, 0.0, 0.0, 0.0, 0.0, 0.0, 0.0, 0.0, 0.0, 0.0<br/>0.0, 0.0]<br/>class = Brainiac>, fillcolor="#e74be7"] ;
213 -> 219 ;
220 [label=<gini = 0.0<br/>samples = 1.2%<br/>value = [0.0, 0.0, 0.0, 0.0, 0.0, 0.0, 0.0, 0.0, 0.0, 0.0<br/>0.0, 0.0, 0.0, 0.0, 0.0, 0.0, 0.0, 0.0, 0.0, 0.0<br/>0.0, 0.0, 0.0, 0.0, 0.0, 0.0, 0.0, 0.0, 0.0, 0.0<br/>0.0, 0.0, 0.0, 0.0, 0.0, 0.0, 0.0, 0.0, 0.0, 0.0<br/>0.0, 0.0, 0.0, 0.0, 0.0, 0.0, 0.0, 0.0, 0.0, 0.0<br/>0.0, 0.0, 0.0, 0.0, 0.0, 0.0, 0.0, 0.0, 0.0, 0.0<br/>0.0, 0.0, 0.0, 0.0, 0.0, 0.0, 0.0, 0.0, 0.0, 0.0<br/>0.0, 0.0, 0.0, 0.0, 0.0, 0.0, 0.0, 0.0, 0.0, 0.0<br/>0.0, 0.0, 0.0, 0.0, 0.0, 0.0, 0.0, 0.0, 0.0, 0.0<br/>0.0, 0.0, 0.0, 0.0, 0.0, 0.0, 0.0, 0.0, 0.0, 0.0<br/>0.0, 1.0, 0.0, 0.0, 0.0, 0.0, 0.0, 0.0, 0.0, 0.0<br/>0.0, 0.0, 0.0, 0.0, 0.0, 0.0, 0.0, 0.0, 0.0, 0.0<br/>0.0, 0.0, 0.0, 0.0, 0.0, 0.0, 0.0, 0.0, 0.0, 0.0<br/>0.0, 0.0]<br/>class = Brainiac>, fillcolor="#e539e5"] ;
219 -> 220 ;
221 [label=<gini = 0.0<br/>samples = 0.3%<br/>value = [0.0, 0.0, 0.0, 0.0, 0.0, 0.0, 0.0, 0.0, 0.0, 0.0<br/>0.0, 0.0, 0.0, 0.0, 0.0, 0.0, 0.0, 0.0, 0.0, 0.0<br/>0.0, 0.0, 0.0, 0.0, 0.0, 0.0, 0.0, 0.0, 0.0, 0.0<br/>0.0, 0.0, 0.0, 0.0, 0.0, 0.0, 0.0, 0.0, 0.0, 0.0<br/>0.0, 0.0, 0.0, 0.0, 0.0, 0.0, 0.0, 0.0, 0.0, 0.0<br/>0.0, 0.0, 0.0, 0.0, 0.0, 0.0, 0.0, 0.0, 0.0, 0.0<br/>0.0, 0.0, 0.0, 0.0, 0.0, 0.0, 0.0, 0.0, 0.0, 0.0<br/>0.0, 0.0, 0.0, 0.0, 0.0, 0.0, 0.0, 0.0, 0.0, 0.0<br/>0.0, 0.0, 0.0, 0.0, 0.0, 0.0, 0.0, 0.0, 0.0, 1.0<br/>0.0, 0.0, 0.0, 0.0, 0.0, 0.0, 0.0, 0.0, 0.0, 0.0<br/>0.0, 0.0, 0.0, 0.0, 0.0, 0.0, 0.0, 0.0, 0.0, 0.0<br/>0.0, 0.0, 0.0, 0.0, 0.0, 0.0, 0.0, 0.0, 0.0, 0.0<br/>0.0, 0.0, 0.0, 0.0, 0.0, 0.0, 0.0, 0.0, 0.0, 0.0<br/>0.0, 0.0]<br/>class = Stargirl>, fillcolor="#8639e5"] ;
219 -> 221 ;
222 [label=<From Earth &le; 0.5<br/>gini = 0.944<br/>samples = 17.4%<br/>value = [0.0, 0.045, 0.0, 0.0, 0.0, 0.0, 0.0, 0.0, 0.0, 0.0<br/>0.0, 0.0, 0.0, 0.0, 0.0, 0.022, 0.0, 0.0, 0.0, 0.0<br/>0.0, 0.045, 0.0, 0.0, 0.0, 0.0, 0.045, 0.0, 0.0<br/>0.022, 0.0, 0.0, 0.0, 0.0, 0.0, 0.0, 0.0, 0.079, 0.0<br/>0.0, 0.0, 0.0, 0.034, 0.056, 0.0, 0.0, 0.067, 0.0<br/>0.0, 0.0, 0.0, 0.0, 0.067, 0.0, 0.0, 0.034, 0.0<br/>0.067, 0.0, 0.079, 0.0, 0.0, 0.0, 0.0, 0.0, 0.0, 0.0<br/>0.0, 0.0, 0.0, 0.0, 0.0, 0.0, 0.0, 0.0, 0.0, 0.0<br/>0.0, 0.0, 0.022, 0.0, 0.0, 0.0, 0.0, 0.0, 0.0, 0.0<br/>0.0, 0.034, 0.0, 0.0, 0.0, 0.0, 0.0, 0.0, 0.0, 0.0<br/>0.0, 0.0, 0.0, 0.0, 0.0, 0.0, 0.0, 0.0, 0.0, 0.0<br/>0.0, 0.0, 0.067, 0.0, 0.0, 0.0, 0.0, 0.0, 0.0, 0.0<br/>0.0, 0.0, 0.0, 0.079, 0.0, 0.0, 0.0, 0.034, 0.0<br/>0.034, 0.0, 0.022, 0.045, 0.0, 0.0]<br/>class = Iron Fist>, fillcolor="#ffffff"] ;
60 -> 222 ;
223 [label=<Regeneration &le; 0.5<br/>gini = 0.42<br/>samples = 1.5%<br/>value = [0.0, 0.0, 0.0, 0.0, 0.0, 0.0, 0.0, 0.0, 0.0, 0.0<br/>0.0, 0.0, 0.0, 0.0, 0.0, 0.0, 0.0, 0.0, 0.0, 0.0<br/>0.0, 0.0, 0.0, 0.0, 0.0, 0.0, 0.0, 0.0, 0.0, 0.0<br/>0.0, 0.0, 0.0, 0.0, 0.0, 0.0, 0.0, 0.0, 0.0, 0.0<br/>0.0, 0.0, 0.0, 0.0, 0.0, 0.0, 0.0, 0.0, 0.0, 0.0<br/>0.0, 0.0, 0.0, 0.0, 0.0, 0.0, 0.0, 0.0, 0.0, 0.0<br/>0.0, 0.0, 0.0, 0.0, 0.0, 0.0, 0.0, 0.0, 0.0, 0.0<br/>0.0, 0.0, 0.0, 0.0, 0.0, 0.0, 0.0, 0.0, 0.0, 0.0<br/>0.0, 0.0, 0.0, 0.0, 0.0, 0.0, 0.0, 0.0, 0.0, 0.0<br/>0.0, 0.0, 0.0, 0.0, 0.0, 0.0, 0.0, 0.0, 0.0, 0.0<br/>0.0, 0.0, 0.0, 0.0, 0.0, 0.0, 0.0, 0.0, 0.0, 0.0<br/>0.0, 0.0, 0.0, 0.0, 0.0, 0.0, 0.0, 0.0, 0.0, 0.0<br/>0.7, 0.0, 0.0, 0.0, 0.3, 0.0, 0.0, 0.0, 0.0, 0.0<br/>0.0, 0.0]<br/>class = Sabretooth>, fillcolor="#f08e9b"] ;
222 -> 223 ;
224 [label=<gini = 0.0<br/>samples = 0.9%<br/>value = [0.0, 0.0, 0.0, 0.0, 0.0, 0.0, 0.0, 0.0, 0.0, 0.0<br/>0.0, 0.0, 0.0, 0.0, 0.0, 0.0, 0.0, 0.0, 0.0, 0.0<br/>0.0, 0.0, 0.0, 0.0, 0.0, 0.0, 0.0, 0.0, 0.0, 0.0<br/>0.0, 0.0, 0.0, 0.0, 0.0, 0.0, 0.0, 0.0, 0.0, 0.0<br/>0.0, 0.0, 0.0, 0.0, 0.0, 0.0, 0.0, 0.0, 0.0, 0.0<br/>0.0, 0.0, 0.0, 0.0, 0.0, 0.0, 0.0, 0.0, 0.0, 0.0<br/>0.0, 0.0, 0.0, 0.0, 0.0, 0.0, 0.0, 0.0, 0.0, 0.0<br/>0.0, 0.0, 0.0, 0.0, 0.0, 0.0, 0.0, 0.0, 0.0, 0.0<br/>0.0, 0.0, 0.0, 0.0, 0.0, 0.0, 0.0, 0.0, 0.0, 0.0<br/>0.0, 0.0, 0.0, 0.0, 0.0, 0.0, 0.0, 0.0, 0.0, 0.0<br/>0.0, 0.0, 0.0, 0.0, 0.0, 0.0, 0.0, 0.0, 0.0, 0.0<br/>0.0, 0.0, 0.0, 0.0, 0.0, 0.0, 0.0, 0.0, 0.0, 0.0<br/>1.0, 0.0, 0.0, 0.0, 0.0, 0.0, 0.0, 0.0, 0.0, 0.0<br/>0.0, 0.0]<br/>class = Sabretooth>, fillcolor="#e53950"] ;
223 -> 224 ;
225 [label=<gini = 0.0<br/>samples = 0.6%<br/>value = [0.0, 0.0, 0.0, 0.0, 0.0, 0.0, 0.0, 0.0, 0.0, 0.0<br/>0.0, 0.0, 0.0, 0.0, 0.0, 0.0, 0.0, 0.0, 0.0, 0.0<br/>0.0, 0.0, 0.0, 0.0, 0.0, 0.0, 0.0, 0.0, 0.0, 0.0<br/>0.0, 0.0, 0.0, 0.0, 0.0, 0.0, 0.0, 0.0, 0.0, 0.0<br/>0.0, 0.0, 0.0, 0.0, 0.0, 0.0, 0.0, 0.0, 0.0, 0.0<br/>0.0, 0.0, 0.0, 0.0, 0.0, 0.0, 0.0, 0.0, 0.0, 0.0<br/>0.0, 0.0, 0.0, 0.0, 0.0, 0.0, 0.0, 0.0, 0.0, 0.0<br/>0.0, 0.0, 0.0, 0.0, 0.0, 0.0, 0.0, 0.0, 0.0, 0.0<br/>0.0, 0.0, 0.0, 0.0, 0.0, 0.0, 0.0, 0.0, 0.0, 0.0<br/>0.0, 0.0, 0.0, 0.0, 0.0, 0.0, 0.0, 0.0, 0.0, 0.0<br/>0.0, 0.0, 0.0, 0.0, 0.0, 0.0, 0.0, 0.0, 0.0, 0.0<br/>0.0, 0.0, 0.0, 0.0, 0.0, 0.0, 0.0, 0.0, 0.0, 0.0<br/>0.0, 0.0, 0.0, 0.0, 1.0, 0.0, 0.0, 0.0, 0.0, 0.0<br/>0.0, 0.0]<br/>class = The Mandarin>, fillcolor="#e54139"] ;
223 -> 225 ;
226 [label=<Ranged Fighter &le; 0.5<br/>gini = 0.939<br/>samples = 15.9%<br/>value = [0.0, 0.051, 0.0, 0.0, 0.0, 0.0, 0.0, 0.0, 0.0, 0.0<br/>0.0, 0.0, 0.0, 0.0, 0.0, 0.025, 0.0, 0.0, 0.0, 0.0<br/>0.0, 0.051, 0.0, 0.0, 0.0, 0.0, 0.051, 0.0, 0.0<br/>0.025, 0.0, 0.0, 0.0, 0.0, 0.0, 0.0, 0.0, 0.089, 0.0<br/>0.0, 0.0, 0.0, 0.038, 0.063, 0.0, 0.0, 0.076, 0.0<br/>0.0, 0.0, 0.0, 0.0, 0.076, 0.0, 0.0, 0.038, 0.0<br/>0.076, 0.0, 0.089, 0.0, 0.0, 0.0, 0.0, 0.0, 0.0, 0.0<br/>0.0, 0.0, 0.0, 0.0, 0.0, 0.0, 0.0, 0.0, 0.0, 0.0<br/>0.0, 0.0, 0.025, 0.0, 0.0, 0.0, 0.0, 0.0, 0.0, 0.0<br/>0.0, 0.038, 0.0, 0.0, 0.0, 0.0, 0.0, 0.0, 0.0, 0.0<br/>0.0, 0.0, 0.0, 0.0, 0.0, 0.0, 0.0, 0.0, 0.0, 0.0<br/>0.0, 0.0, 0.076, 0.0, 0.0, 0.0, 0.0, 0.0, 0.0, 0.0<br/>0.0, 0.0, 0.0, 0.0, 0.0, 0.0, 0.0, 0.0, 0.0, 0.038<br/>0.0, 0.025, 0.051, 0.0, 0.0]<br/>class = Iron Fist>, fillcolor="#ffffff"] ;
222 -> 226 ;
227 [label=<Telepathy &le; 0.5<br/>gini = 0.913<br/>samples = 11.4%<br/>value = [0.0, 0.075, 0.0, 0.0, 0.0, 0.0, 0.0, 0.0, 0.0, 0.0<br/>0.0, 0.0, 0.0, 0.0, 0.0, 0.038, 0.0, 0.0, 0.0, 0.0<br/>0.0, 0.075, 0.0, 0.0, 0.0, 0.0, 0.075, 0.0, 0.0, 0.0<br/>0.0, 0.0, 0.0, 0.0, 0.0, 0.0, 0.0, 0.132, 0.0, 0.0<br/>0.0, 0.0, 0.057, 0.094, 0.0, 0.0, 0.0, 0.0, 0.0, 0.0<br/>0.0, 0.0, 0.0, 0.0, 0.0, 0.057, 0.0, 0.113, 0.0, 0.0<br/>0.0, 0.0, 0.0, 0.0, 0.0, 0.0, 0.0, 0.0, 0.0, 0.0<br/>0.0, 0.0, 0.0, 0.0, 0.0, 0.0, 0.0, 0.0, 0.0, 0.038<br/>0.0, 0.0, 0.0, 0.0, 0.0, 0.0, 0.0, 0.0, 0.057, 0.0<br/>0.0, 0.0, 0.0, 0.0, 0.0, 0.0, 0.0, 0.0, 0.0, 0.0<br/>0.0, 0.0, 0.0, 0.0, 0.0, 0.0, 0.0, 0.0, 0.0, 0.113<br/>0.0, 0.0, 0.0, 0.0, 0.0, 0.0, 0.0, 0.0, 0.0, 0.0<br/>0.0, 0.0, 0.0, 0.0, 0.0, 0.0, 0.0, 0.0, 0.0, 0.075<br/>0.0, 0.0]<br/>class = Iron Fist>, fillcolor="#fbfefb"] ;
226 -> 227 ;
228 [label=<Regeneration &le; 0.5<br/>gini = 0.907<br/>samples = 10.2%<br/>value = [0.0, 0.087, 0.0, 0.0, 0.0, 0.0, 0.0, 0.0, 0.0, 0.0<br/>0.0, 0.0, 0.0, 0.0, 0.0, 0.043, 0.0, 0.0, 0.0, 0.0<br/>0.0, 0.087, 0.0, 0.0, 0.0, 0.0, 0.087, 0.0, 0.0, 0.0<br/>0.0, 0.0, 0.0, 0.0, 0.0, 0.0, 0.0, 0.0, 0.0, 0.0<br/>0.0, 0.0, 0.065, 0.109, 0.0, 0.0, 0.0, 0.0, 0.0, 0.0<br/>0.0, 0.0, 0.0, 0.0, 0.0, 0.065, 0.0, 0.13, 0.0, 0.0<br/>0.0, 0.0, 0.0, 0.0, 0.0, 0.0, 0.0, 0.0, 0.0, 0.0<br/>0.0, 0.0, 0.0, 0.0, 0.0, 0.0, 0.0, 0.0, 0.0, 0.043<br/>0.0, 0.0, 0.0, 0.0, 0.0, 0.0, 0.0, 0.0, 0.065, 0.0<br/>0.0, 0.0, 0.0, 0.0, 0.0, 0.0, 0.0, 0.0, 0.0, 0.0<br/>0.0, 0.0, 0.0, 0.0, 0.0, 0.0, 0.0, 0.0, 0.0, 0.13<br/>0.0, 0.0, 0.0, 0.0, 0.0, 0.0, 0.0, 0.0, 0.0, 0.0<br/>0.0, 0.0, 0.0, 0.0, 0.0, 0.0, 0.0, 0.0, 0.0, 0.087<br/>0.0, 0.0]<br/>class = Deathstroke>, fillcolor="#ffffff"] ;
227 -> 228 ;
229 [label=<Military Background &le; 0.5<br/>gini = 0.837<br/>samples = 5.7%<br/>value = [0.0, 0.154, 0.0, 0.0, 0.0, 0.0, 0.0, 0.0, 0.0, 0.0<br/>0.0, 0.0, 0.0, 0.0, 0.0, 0.077, 0.0, 0.0, 0.0, 0.0<br/>0.0, 0.0, 0.0, 0.0, 0.0, 0.0, 0.154, 0.0, 0.0, 0.0<br/>0.0, 0.0, 0.0, 0.0, 0.0, 0.0, 0.0, 0.0, 0.0, 0.0<br/>0.0, 0.0, 0.115, 0.192, 0.0, 0.0, 0.0, 0.0, 0.0, 0.0<br/>0.0, 0.0, 0.0, 0.0, 0.0, 0.0, 0.0, 0.231, 0.0, 0.0<br/>0.0, 0.0, 0.0, 0.0, 0.0, 0.0, 0.0, 0.0, 0.0, 0.0<br/>0.0, 0.0, 0.0, 0.0, 0.0, 0.0, 0.0, 0.0, 0.0, 0.077<br/>0.0, 0.0, 0.0, 0.0, 0.0, 0.0, 0.0, 0.0, 0.0, 0.0<br/>0.0, 0.0, 0.0, 0.0, 0.0, 0.0, 0.0, 0.0, 0.0, 0.0<br/>0.0, 0.0, 0.0, 0.0, 0.0, 0.0, 0.0, 0.0, 0.0, 0.0<br/>0.0, 0.0, 0.0, 0.0, 0.0, 0.0, 0.0, 0.0, 0.0, 0.0<br/>0.0, 0.0, 0.0, 0.0, 0.0, 0.0, 0.0, 0.0, 0.0, 0.0<br/>0.0, 0.0]<br/>class = Deathstroke>, fillcolor="#f6fefe"] ;
228 -> 229 ;
230 [label=<Tech Enhanced &le; 0.5<br/>gini = 0.765<br/>samples = 3.9%<br/>value = [0.0, 0.222, 0.0, 0.0, 0.0, 0.0, 0.0, 0.0, 0.0, 0.0<br/>0.0, 0.0, 0.0, 0.0, 0.0, 0.111, 0.0, 0.0, 0.0, 0.0<br/>0.0, 0.0, 0.0, 0.0, 0.0, 0.0, 0.222, 0.0, 0.0, 0.0<br/>0.0, 0.0, 0.0, 0.0, 0.0, 0.0, 0.0, 0.0, 0.0, 0.0<br/>0.0, 0.0, 0.0, 0.0, 0.0, 0.0, 0.0, 0.0, 0.0, 0.0<br/>0.0, 0.0, 0.0, 0.0, 0.0, 0.0, 0.0, 0.333, 0.0, 0.0<br/>0.0, 0.0, 0.0, 0.0, 0.0, 0.0, 0.0, 0.0, 0.0, 0.0<br/>0.0, 0.0, 0.0, 0.0, 0.0, 0.0, 0.0, 0.0, 0.0, 0.111<br/>0.0, 0.0, 0.0, 0.0, 0.0, 0.0, 0.0, 0.0, 0.0, 0.0<br/>0.0, 0.0, 0.0, 0.0, 0.0, 0.0, 0.0, 0.0, 0.0, 0.0<br/>0.0, 0.0, 0.0, 0.0, 0.0, 0.0, 0.0, 0.0, 0.0, 0.0<br/>0.0, 0.0, 0.0, 0.0, 0.0, 0.0, 0.0, 0.0, 0.0, 0.0<br/>0.0, 0.0, 0.0, 0.0, 0.0, 0.0, 0.0, 0.0, 0.0, 0.0<br/>0.0, 0.0]<br/>class = Deathstroke>, fillcolor="#e3fbfb"] ;
229 -> 230 ;
231 [label="(...)", fillcolor="#C0C0C0"] ;
230 -> 231 ;
238 [label="(...)", fillcolor="#C0C0C0"] ;
230 -> 238 ;
239 [label=<Enhanced Senses &le; 0.5<br/>gini = 0.469<br/>samples = 1.8%<br/>value = [0.0, 0.0, 0.0, 0.0, 0.0, 0.0, 0.0, 0.0, 0.0, 0.0<br/>0.0, 0.0, 0.0, 0.0, 0.0, 0.0, 0.0, 0.0, 0.0, 0.0<br/>0.0, 0.0, 0.0, 0.0, 0.0, 0.0, 0.0, 0.0, 0.0, 0.0<br/>0.0, 0.0, 0.0, 0.0, 0.0, 0.0, 0.0, 0.0, 0.0, 0.0<br/>0.0, 0.0, 0.375, 0.625, 0.0, 0.0, 0.0, 0.0, 0.0, 0.0<br/>0.0, 0.0, 0.0, 0.0, 0.0, 0.0, 0.0, 0.0, 0.0, 0.0<br/>0.0, 0.0, 0.0, 0.0, 0.0, 0.0, 0.0, 0.0, 0.0, 0.0<br/>0.0, 0.0, 0.0, 0.0, 0.0, 0.0, 0.0, 0.0, 0.0, 0.0<br/>0.0, 0.0, 0.0, 0.0, 0.0, 0.0, 0.0, 0.0, 0.0, 0.0<br/>0.0, 0.0, 0.0, 0.0, 0.0, 0.0, 0.0, 0.0, 0.0, 0.0<br/>0.0, 0.0, 0.0, 0.0, 0.0, 0.0, 0.0, 0.0, 0.0, 0.0<br/>0.0, 0.0, 0.0, 0.0, 0.0, 0.0, 0.0, 0.0, 0.0, 0.0<br/>0.0, 0.0, 0.0, 0.0, 0.0, 0.0, 0.0, 0.0, 0.0, 0.0<br/>0.0, 0.0]<br/>class = Magneto>, fillcolor="#b0f5c9"] ;
229 -> 239 ;
240 [label="(...)", fillcolor="#C0C0C0"] ;
239 -> 240 ;
241 [label="(...)", fillcolor="#C0C0C0"] ;
239 -> 241 ;
242 [label=<Super Strength &le; 0.5<br/>gini = 0.785<br/>samples = 4.5%<br/>value = [0.0, 0.0, 0.0, 0.0, 0.0, 0.0, 0.0, 0.0, 0.0, 0.0<br/>0.0, 0.0, 0.0, 0.0, 0.0, 0.0, 0.0, 0.0, 0.0, 0.0<br/>0.0, 0.2, 0.0, 0.0, 0.0, 0.0, 0.0, 0.0, 0.0, 0.0<br/>0.0, 0.0, 0.0, 0.0, 0.0, 0.0, 0.0, 0.0, 0.0, 0.0<br/>0.0, 0.0, 0.0, 0.0, 0.0, 0.0, 0.0, 0.0, 0.0, 0.0<br/>0.0, 0.0, 0.0, 0.0, 0.0, 0.15, 0.0, 0.0, 0.0, 0.0<br/>0.0, 0.0, 0.0, 0.0, 0.0, 0.0, 0.0, 0.0, 0.0, 0.0<br/>0.0, 0.0, 0.0, 0.0, 0.0, 0.0, 0.0, 0.0, 0.0, 0.0<br/>0.0, 0.0, 0.0, 0.0, 0.0, 0.0, 0.0, 0.0, 0.15, 0.0<br/>0.0, 0.0, 0.0, 0.0, 0.0, 0.0, 0.0, 0.0, 0.0, 0.0<br/>0.0, 0.0, 0.0, 0.0, 0.0, 0.0, 0.0, 0.0, 0.0, 0.3<br/>0.0, 0.0, 0.0, 0.0, 0.0, 0.0, 0.0, 0.0, 0.0, 0.0<br/>0.0, 0.0, 0.0, 0.0, 0.0, 0.0, 0.0, 0.0, 0.0, 0.2<br/>0.0, 0.0]<br/>class = Ocean Master>, fillcolor="#fce6f4"] ;
228 -> 242 ;
243 [label=<gini = 0.0<br/>samples = 0.9%<br/>value = [0.0, 0.0, 0.0, 0.0, 0.0, 0.0, 0.0, 0.0, 0.0, 0.0<br/>0.0, 0.0, 0.0, 0.0, 0.0, 0.0, 0.0, 0.0, 0.0, 0.0<br/>0.0, 0.0, 0.0, 0.0, 0.0, 0.0, 0.0, 0.0, 0.0, 0.0<br/>0.0, 0.0, 0.0, 0.0, 0.0, 0.0, 0.0, 0.0, 0.0, 0.0<br/>0.0, 0.0, 0.0, 0.0, 0.0, 0.0, 0.0, 0.0, 0.0, 0.0<br/>0.0, 0.0, 0.0, 0.0, 0.0, 0.0, 0.0, 0.0, 0.0, 0.0<br/>0.0, 0.0, 0.0, 0.0, 0.0, 0.0, 0.0, 0.0, 0.0, 0.0<br/>0.0, 0.0, 0.0, 0.0, 0.0, 0.0, 0.0, 0.0, 0.0, 0.0<br/>0.0, 0.0, 0.0, 0.0, 0.0, 0.0, 0.0, 0.0, 1.0, 0.0<br/>0.0, 0.0, 0.0, 0.0, 0.0, 0.0, 0.0, 0.0, 0.0, 0.0<br/>0.0, 0.0, 0.0, 0.0, 0.0, 0.0, 0.0, 0.0, 0.0, 0.0<br/>0.0, 0.0, 0.0, 0.0, 0.0, 0.0, 0.0, 0.0, 0.0, 0.0<br/>0.0, 0.0, 0.0, 0.0, 0.0, 0.0, 0.0, 0.0, 0.0, 0.0<br/>0.0, 0.0]<br/>class = Spectre>, fillcolor="#7e39e5"] ;
242 -> 243 ;
244 [label=<Tech Genius &le; 0.5<br/>gini = 0.734<br/>samples = 3.6%<br/>value = [0.0, 0.0, 0.0, 0.0, 0.0, 0.0, 0.0, 0.0, 0.0, 0.0<br/>0.0, 0.0, 0.0, 0.0, 0.0, 0.0, 0.0, 0.0, 0.0, 0.0<br/>0.0, 0.235, 0.0, 0.0, 0.0, 0.0, 0.0, 0.0, 0.0, 0.0<br/>0.0, 0.0, 0.0, 0.0, 0.0, 0.0, 0.0, 0.0, 0.0, 0.0<br/>0.0, 0.0, 0.0, 0.0, 0.0, 0.0, 0.0, 0.0, 0.0, 0.0<br/>0.0, 0.0, 0.0, 0.0, 0.0, 0.176, 0.0, 0.0, 0.0, 0.0<br/>0.0, 0.0, 0.0, 0.0, 0.0, 0.0, 0.0, 0.0, 0.0, 0.0<br/>0.0, 0.0, 0.0, 0.0, 0.0, 0.0, 0.0, 0.0, 0.0, 0.0<br/>0.0, 0.0, 0.0, 0.0, 0.0, 0.0, 0.0, 0.0, 0.0, 0.0<br/>0.0, 0.0, 0.0, 0.0, 0.0, 0.0, 0.0, 0.0, 0.0, 0.0<br/>0.0, 0.0, 0.0, 0.0, 0.0, 0.0, 0.0, 0.0, 0.0, 0.353<br/>0.0, 0.0, 0.0, 0.0, 0.0, 0.0, 0.0, 0.0, 0.0, 0.0<br/>0.0, 0.0, 0.0, 0.0, 0.0, 0.0, 0.0, 0.0, 0.0, 0.235<br/>0.0, 0.0]<br/>class = Ocean Master>, fillcolor="#fbe1f1"] ;
242 -> 244 ;
245 [label="(...)", fillcolor="#C0C0C0"] ;
244 -> 245 ;
248 [label="(...)", fillcolor="#C0C0C0"] ;
244 -> 248 ;
251 [label=<gini = 0.0<br/>samples = 1.2%<br/>value = [0.0, 0.0, 0.0, 0.0, 0.0, 0.0, 0.0, 0.0, 0.0, 0.0<br/>0.0, 0.0, 0.0, 0.0, 0.0, 0.0, 0.0, 0.0, 0.0, 0.0<br/>0.0, 0.0, 0.0, 0.0, 0.0, 0.0, 0.0, 0.0, 0.0, 0.0<br/>0.0, 0.0, 0.0, 0.0, 0.0, 0.0, 0.0, 1.0, 0.0, 0.0<br/>0.0, 0.0, 0.0, 0.0, 0.0, 0.0, 0.0, 0.0, 0.0, 0.0<br/>0.0, 0.0, 0.0, 0.0, 0.0, 0.0, 0.0, 0.0, 0.0, 0.0<br/>0.0, 0.0, 0.0, 0.0, 0.0, 0.0, 0.0, 0.0, 0.0, 0.0<br/>0.0, 0.0, 0.0, 0.0, 0.0, 0.0, 0.0, 0.0, 0.0, 0.0<br/>0.0, 0.0, 0.0, 0.0, 0.0, 0.0, 0.0, 0.0, 0.0, 0.0<br/>0.0, 0.0, 0.0, 0.0, 0.0, 0.0, 0.0, 0.0, 0.0, 0.0<br/>0.0, 0.0, 0.0, 0.0, 0.0, 0.0, 0.0, 0.0, 0.0, 0.0<br/>0.0, 0.0, 0.0, 0.0, 0.0, 0.0, 0.0, 0.0, 0.0, 0.0<br/>0.0, 0.0, 0.0, 0.0, 0.0, 0.0, 0.0, 0.0, 0.0, 0.0<br/>0.0, 0.0]<br/>class = Iron Fist>, fillcolor="#39e547"] ;
227 -> 251 ;
252 [label=<Leader &le; 0.5<br/>gini = 0.796<br/>samples = 4.5%<br/>value = [0.0, 0.0, 0.0, 0.0, 0.0, 0.0, 0.0, 0.0, 0.0, 0.0<br/>0.0, 0.0, 0.0, 0.0, 0.0, 0.0, 0.0, 0.0, 0.0, 0.0<br/>0.0, 0.0, 0.0, 0.0, 0.0, 0.0, 0.0, 0.0, 0.0, 0.077<br/>0.0, 0.0, 0.0, 0.0, 0.0, 0.0, 0.0, 0.0, 0.0, 0.0<br/>0.0, 0.0, 0.0, 0.0, 0.0, 0.0, 0.231, 0.0, 0.0, 0.0<br/>0.0, 0.0, 0.231, 0.0, 0.0, 0.0, 0.0, 0.0, 0.0, 0.269<br/>0.0, 0.0, 0.0, 0.0, 0.0, 0.0, 0.0, 0.0, 0.0, 0.0<br/>0.0, 0.0, 0.0, 0.0, 0.0, 0.0, 0.0, 0.0, 0.0, 0.0<br/>0.0, 0.0, 0.0, 0.0, 0.0, 0.0, 0.0, 0.0, 0.0, 0.0<br/>0.0, 0.0, 0.0, 0.0, 0.0, 0.0, 0.0, 0.0, 0.0, 0.0<br/>0.0, 0.0, 0.0, 0.0, 0.0, 0.0, 0.0, 0.0, 0.0, 0.0<br/>0.0, 0.0, 0.0, 0.0, 0.0, 0.0, 0.0, 0.0, 0.0, 0.0<br/>0.0, 0.0, 0.0, 0.0, 0.0, 0.0, 0.115, 0.0, 0.077, 0.0<br/>0.0, 0.0]<br/>class = Batwoman>, fillcolor="#f5fdfe"] ;
226 -> 252 ;
253 [label=<Uses Gadgets &le; 0.5<br/>gini = 0.706<br/>samples = 3.3%<br/>value = [0.0, 0.0, 0.0, 0.0, 0.0, 0.0, 0.0, 0.0, 0.0, 0.0<br/>0.0, 0.0, 0.0, 0.0, 0.0, 0.0, 0.0, 0.0, 0.0, 0.0<br/>0.0, 0.0, 0.0, 0.0, 0.0, 0.0, 0.0, 0.0, 0.0, 0.0<br/>0.0, 0.0, 0.0, 0.0, 0.0, 0.0, 0.0, 0.0, 0.0, 0.0<br/>0.0, 0.0, 0.0, 0.0, 0.0, 0.0, 0.353, 0.0, 0.0, 0.0<br/>0.0, 0.0, 0.353, 0.0, 0.0, 0.0, 0.0, 0.0, 0.0, 0.0<br/>0.0, 0.0, 0.0, 0.0, 0.0, 0.0, 0.0, 0.0, 0.0, 0.0<br/>0.0, 0.0, 0.0, 0.0, 0.0, 0.0, 0.0, 0.0, 0.0, 0.0<br/>0.0, 0.0, 0.0, 0.0, 0.0, 0.0, 0.0, 0.0, 0.0, 0.0<br/>0.0, 0.0, 0.0, 0.0, 0.0, 0.0, 0.0, 0.0, 0.0, 0.0<br/>0.0, 0.0, 0.0, 0.0, 0.0, 0.0, 0.0, 0.0, 0.0, 0.0<br/>0.0, 0.0, 0.0, 0.0, 0.0, 0.0, 0.0, 0.0, 0.0, 0.0<br/>0.0, 0.0, 0.0, 0.0, 0.0, 0.0, 0.176, 0.0, 0.118, 0.0<br/>0.0, 0.0]<br/>class = Loki>, fillcolor="#ffffff"] ;
252 -> 253 ;
254 [label=<gini = 0.0<br/>samples = 1.2%<br/>value = [0.0, 0.0, 0.0, 0.0, 0.0, 0.0, 0.0, 0.0, 0.0, 0.0<br/>0.0, 0.0, 0.0, 0.0, 0.0, 0.0, 0.0, 0.0, 0.0, 0.0<br/>0.0, 0.0, 0.0, 0.0, 0.0, 0.0, 0.0, 0.0, 0.0, 0.0<br/>0.0, 0.0, 0.0, 0.0, 0.0, 0.0, 0.0, 0.0, 0.0, 0.0<br/>0.0, 0.0, 0.0, 0.0, 0.0, 0.0, 1.0, 0.0, 0.0, 0.0<br/>0.0, 0.0, 0.0, 0.0, 0.0, 0.0, 0.0, 0.0, 0.0, 0.0<br/>0.0, 0.0, 0.0, 0.0, 0.0, 0.0, 0.0, 0.0, 0.0, 0.0<br/>0.0, 0.0, 0.0, 0.0, 0.0, 0.0, 0.0, 0.0, 0.0, 0.0<br/>0.0, 0.0, 0.0, 0.0, 0.0, 0.0, 0.0, 0.0, 0.0, 0.0<br/>0.0, 0.0, 0.0, 0.0, 0.0, 0.0, 0.0, 0.0, 0.0, 0.0<br/>0.0, 0.0, 0.0, 0.0, 0.0, 0.0, 0.0, 0.0, 0.0, 0.0<br/>0.0, 0.0, 0.0, 0.0, 0.0, 0.0, 0.0, 0.0, 0.0, 0.0<br/>0.0, 0.0, 0.0, 0.0, 0.0, 0.0, 0.0, 0.0, 0.0, 0.0<br/>0.0, 0.0]<br/>class = Loki>, fillcolor="#39e58f"] ;
253 -> 254 ;
255 [label=<Trained Assassin &le; 0.5<br/>gini = 0.595<br/>samples = 2.1%<br/>value = [0.0, 0.0, 0.0, 0.0, 0.0, 0.0, 0.0, 0.0, 0.0, 0.0<br/>0.0, 0.0, 0.0, 0.0, 0.0, 0.0, 0.0, 0.0, 0.0, 0.0<br/>0.0, 0.0, 0.0, 0.0, 0.0, 0.0, 0.0, 0.0, 0.0, 0.0<br/>0.0, 0.0, 0.0, 0.0, 0.0, 0.0, 0.0, 0.0, 0.0, 0.0<br/>0.0, 0.0, 0.0, 0.0, 0.0, 0.0, 0.0, 0.0, 0.0, 0.0<br/>0.0, 0.0, 0.545, 0.0, 0.0, 0.0, 0.0, 0.0, 0.0, 0.0<br/>0.0, 0.0, 0.0, 0.0, 0.0, 0.0, 0.0, 0.0, 0.0, 0.0<br/>0.0, 0.0, 0.0, 0.0, 0.0, 0.0, 0.0, 0.0, 0.0, 0.0<br/>0.0, 0.0, 0.0, 0.0, 0.0, 0.0, 0.0, 0.0, 0.0, 0.0<br/>0.0, 0.0, 0.0, 0.0, 0.0, 0.0, 0.0, 0.0, 0.0, 0.0<br/>0.0, 0.0, 0.0, 0.0, 0.0, 0.0, 0.0, 0.0, 0.0, 0.0<br/>0.0, 0.0, 0.0, 0.0, 0.0, 0.0, 0.0, 0.0, 0.0, 0.0<br/>0.0, 0.0, 0.0, 0.0, 0.0, 0.0, 0.273, 0.0, 0.182, 0.0<br/>0.0, 0.0]<br/>class = Wasp>, fillcolor="#b5f5e6"] ;
253 -> 255 ;
256 [label=<gini = 0.0<br/>samples = 0.6%<br/>value = [0.0, 0.0, 0.0, 0.0, 0.0, 0.0, 0.0, 0.0, 0.0, 0.0<br/>0.0, 0.0, 0.0, 0.0, 0.0, 0.0, 0.0, 0.0, 0.0, 0.0<br/>0.0, 0.0, 0.0, 0.0, 0.0, 0.0, 0.0, 0.0, 0.0, 0.0<br/>0.0, 0.0, 0.0, 0.0, 0.0, 0.0, 0.0, 0.0, 0.0, 0.0<br/>0.0, 0.0, 0.0, 0.0, 0.0, 0.0, 0.0, 0.0, 0.0, 0.0<br/>0.0, 0.0, 0.0, 0.0, 0.0, 0.0, 0.0, 0.0, 0.0, 0.0<br/>0.0, 0.0, 0.0, 0.0, 0.0, 0.0, 0.0, 0.0, 0.0, 0.0<br/>0.0, 0.0, 0.0, 0.0, 0.0, 0.0, 0.0, 0.0, 0.0, 0.0<br/>0.0, 0.0, 0.0, 0.0, 0.0, 0.0, 0.0, 0.0, 0.0, 0.0<br/>0.0, 0.0, 0.0, 0.0, 0.0, 0.0, 0.0, 0.0, 0.0, 0.0<br/>0.0, 0.0, 0.0, 0.0, 0.0, 0.0, 0.0, 0.0, 0.0, 0.0<br/>0.0, 0.0, 0.0, 0.0, 0.0, 0.0, 0.0, 0.0, 0.0, 0.0<br/>0.0, 0.0, 0.0, 0.0, 0.0, 0.0, 1.0, 0.0, 0.0, 0.0<br/>0.0, 0.0]<br/>class = Ronan>, fillcolor="#e55039"] ;
255 -> 256 ;
257 [label=<Stealth Expert &le; 0.5<br/>gini = 0.375<br/>samples = 1.5%<br/>value = [0.0, 0.0, 0.0, 0.0, 0.0, 0.0, 0.0, 0.0, 0.0, 0.0<br/>0.0, 0.0, 0.0, 0.0, 0.0, 0.0, 0.0, 0.0, 0.0, 0.0<br/>0.0, 0.0, 0.0, 0.0, 0.0, 0.0, 0.0, 0.0, 0.0, 0.0<br/>0.0, 0.0, 0.0, 0.0, 0.0, 0.0, 0.0, 0.0, 0.0, 0.0<br/>0.0, 0.0, 0.0, 0.0, 0.0, 0.0, 0.0, 0.0, 0.0, 0.0<br/>0.0, 0.0, 0.75, 0.0, 0.0, 0.0, 0.0, 0.0, 0.0, 0.0<br/>0.0, 0.0, 0.0, 0.0, 0.0, 0.0, 0.0, 0.0, 0.0, 0.0<br/>0.0, 0.0, 0.0, 0.0, 0.0, 0.0, 0.0, 0.0, 0.0, 0.0<br/>0.0, 0.0, 0.0, 0.0, 0.0, 0.0, 0.0, 0.0, 0.0, 0.0<br/>0.0, 0.0, 0.0, 0.0, 0.0, 0.0, 0.0, 0.0, 0.0, 0.0<br/>0.0, 0.0, 0.0, 0.0, 0.0, 0.0, 0.0, 0.0, 0.0, 0.0<br/>0.0, 0.0, 0.0, 0.0, 0.0, 0.0, 0.0, 0.0, 0.0, 0.0<br/>0.0, 0.0, 0.0, 0.0, 0.0, 0.0, 0.0, 0.0, 0.25, 0.0<br/>0.0, 0.0]<br/>class = Wasp>, fillcolor="#7beed3"] ;
255 -> 257 ;
258 [label="(...)", fillcolor="#C0C0C0"] ;
257 -> 258 ;
259 [label="(...)", fillcolor="#C0C0C0"] ;
257 -> 259 ;
260 [label=<Experiment Origin &le; 0.5<br/>gini = 0.346<br/>samples = 1.2%<br/>value = [0.0, 0.0, 0.0, 0.0, 0.0, 0.0, 0.0, 0.0, 0.0, 0.0<br/>0.0, 0.0, 0.0, 0.0, 0.0, 0.0, 0.0, 0.0, 0.0, 0.0<br/>0.0, 0.0, 0.0, 0.0, 0.0, 0.0, 0.0, 0.0, 0.0, 0.222<br/>0.0, 0.0, 0.0, 0.0, 0.0, 0.0, 0.0, 0.0, 0.0, 0.0<br/>0.0, 0.0, 0.0, 0.0, 0.0, 0.0, 0.0, 0.0, 0.0, 0.0<br/>0.0, 0.0, 0.0, 0.0, 0.0, 0.0, 0.0, 0.0, 0.0, 0.778<br/>0.0, 0.0, 0.0, 0.0, 0.0, 0.0, 0.0, 0.0, 0.0, 0.0<br/>0.0, 0.0, 0.0, 0.0, 0.0, 0.0, 0.0, 0.0, 0.0, 0.0<br/>0.0, 0.0, 0.0, 0.0, 0.0, 0.0, 0.0, 0.0, 0.0, 0.0<br/>0.0, 0.0, 0.0, 0.0, 0.0, 0.0, 0.0, 0.0, 0.0, 0.0<br/>0.0, 0.0, 0.0, 0.0, 0.0, 0.0, 0.0, 0.0, 0.0, 0.0<br/>0.0, 0.0, 0.0, 0.0, 0.0, 0.0, 0.0, 0.0, 0.0, 0.0<br/>0.0, 0.0, 0.0, 0.0, 0.0, 0.0, 0.0, 0.0, 0.0, 0.0<br/>0.0, 0.0]<br/>class = Batwoman>, fillcolor="#72e2ec"] ;
252 -> 260 ;
261 [label=<gini = 0.0<br/>samples = 0.9%<br/>value = [0.0, 0.0, 0.0, 0.0, 0.0, 0.0, 0.0, 0.0, 0.0, 0.0<br/>0.0, 0.0, 0.0, 0.0, 0.0, 0.0, 0.0, 0.0, 0.0, 0.0<br/>0.0, 0.0, 0.0, 0.0, 0.0, 0.0, 0.0, 0.0, 0.0, 0.0<br/>0.0, 0.0, 0.0, 0.0, 0.0, 0.0, 0.0, 0.0, 0.0, 0.0<br/>0.0, 0.0, 0.0, 0.0, 0.0, 0.0, 0.0, 0.0, 0.0, 0.0<br/>0.0, 0.0, 0.0, 0.0, 0.0, 0.0, 0.0, 0.0, 0.0, 1.0<br/>0.0, 0.0, 0.0, 0.0, 0.0, 0.0, 0.0, 0.0, 0.0, 0.0<br/>0.0, 0.0, 0.0, 0.0, 0.0, 0.0, 0.0, 0.0, 0.0, 0.0<br/>0.0, 0.0, 0.0, 0.0, 0.0, 0.0, 0.0, 0.0, 0.0, 0.0<br/>0.0, 0.0, 0.0, 0.0, 0.0, 0.0, 0.0, 0.0, 0.0, 0.0<br/>0.0, 0.0, 0.0, 0.0, 0.0, 0.0, 0.0, 0.0, 0.0, 0.0<br/>0.0, 0.0, 0.0, 0.0, 0.0, 0.0, 0.0, 0.0, 0.0, 0.0<br/>0.0, 0.0, 0.0, 0.0, 0.0, 0.0, 0.0, 0.0, 0.0, 0.0<br/>0.0, 0.0]<br/>class = Batwoman>, fillcolor="#39d7e5"] ;
260 -> 261 ;
262 [label=<gini = 0.0<br/>samples = 0.3%<br/>value = [0.0, 0.0, 0.0, 0.0, 0.0, 0.0, 0.0, 0.0, 0.0, 0.0<br/>0.0, 0.0, 0.0, 0.0, 0.0, 0.0, 0.0, 0.0, 0.0, 0.0<br/>0.0, 0.0, 0.0, 0.0, 0.0, 0.0, 0.0, 0.0, 0.0, 1.0<br/>0.0, 0.0, 0.0, 0.0, 0.0, 0.0, 0.0, 0.0, 0.0, 0.0<br/>0.0, 0.0, 0.0, 0.0, 0.0, 0.0, 0.0, 0.0, 0.0, 0.0<br/>0.0, 0.0, 0.0, 0.0, 0.0, 0.0, 0.0, 0.0, 0.0, 0.0<br/>0.0, 0.0, 0.0, 0.0, 0.0, 0.0, 0.0, 0.0, 0.0, 0.0<br/>0.0, 0.0, 0.0, 0.0, 0.0, 0.0, 0.0, 0.0, 0.0, 0.0<br/>0.0, 0.0, 0.0, 0.0, 0.0, 0.0, 0.0, 0.0, 0.0, 0.0<br/>0.0, 0.0, 0.0, 0.0, 0.0, 0.0, 0.0, 0.0, 0.0, 0.0<br/>0.0, 0.0, 0.0, 0.0, 0.0, 0.0, 0.0, 0.0, 0.0, 0.0<br/>0.0, 0.0, 0.0, 0.0, 0.0, 0.0, 0.0, 0.0, 0.0, 0.0<br/>0.0, 0.0, 0.0, 0.0, 0.0, 0.0, 0.0, 0.0, 0.0, 0.0<br/>0.0, 0.0]<br/>class = Starfire>, fillcolor="#67e539"] ;
260 -> 262 ;
}